digraph Tree {
node [shape=box, style="filled, rounded", color="black", fontname="helvetica"] ;
edge [fontname="helvetica"] ;
0 [label=<Category_Encoded &le; 1.5<br/>gini = 0.374<br/>samples = 5053<br/>value = [6006, 1989]<br/>class = Baixo Lucro>, fillcolor="#eeab7b"] ;
1 [label=<Discount &le; 0.125<br/>gini = 0.317<br/>samples = 4108<br/>value = [5224, 1285]<br/>class = Baixo Lucro>, fillcolor="#eba06a"] ;
0 -> 1 [labeldistance=2.5, labelangle=45, headlabel="True"] ;
2 [label=<Quantity &le; 5.5<br/>gini = 0.42<br/>samples = 2012<br/>value = [2219.0, 949.0]<br/>class = Baixo Lucro>, fillcolor="#f0b78e"] ;
1 -> 2 ;
3 [label=<Discount &le; 0.05<br/>gini = 0.376<br/>samples = 1635<br/>value = [1923, 645]<br/>class = Baixo Lucro>, fillcolor="#eeab7b"] ;
2 -> 3 ;
4 [label=<Sales &le; 77.555<br/>gini = 0.37<br/>samples = 1597<br/>value = [1893.0, 613.0]<br/>class = Baixo Lucro>, fillcolor="#edaa79"] ;
3 -> 4 ;
5 [label=<Sales &le; 62.305<br/>gini = 0.027<br/>samples = 1092<br/>value = [1687, 23]<br/>class = Baixo Lucro>, fillcolor="#e5833c"] ;
4 -> 5 ;
6 [label=<Region_Encoded &le; 1.5<br/>gini = 0.001<br/>samples = 1028<br/>value = [1608.0, 1.0]<br/>class = Baixo Lucro>, fillcolor="#e58139"] ;
5 -> 6 ;
7 [label=<Sub-Category_Encoded &le; 9.5<br/>gini = 0.003<br/>samples = 461<br/>value = [739, 1]<br/>class = Baixo Lucro>, fillcolor="#e58139"] ;
6 -> 7 ;
8 [label=<gini = 0.0<br/>samples = 259<br/>value = [402, 0]<br/>class = Baixo Lucro>, fillcolor="#e58139"] ;
7 -> 8 ;
9 [label=<Quantity &le; 3.5<br/>gini = 0.006<br/>samples = 202<br/>value = [337, 1]<br/>class = Baixo Lucro>, fillcolor="#e5813a"] ;
7 -> 9 ;
10 [label=<gini = 0.0<br/>samples = 158<br/>value = [257, 0]<br/>class = Baixo Lucro>, fillcolor="#e58139"] ;
9 -> 10 ;
11 [label=<Sales &le; 56.46<br/>gini = 0.024<br/>samples = 44<br/>value = [80, 1]<br/>class = Baixo Lucro>, fillcolor="#e5833b"] ;
9 -> 11 ;
12 [label=<gini = 0.0<br/>samples = 43<br/>value = [80, 0]<br/>class = Baixo Lucro>, fillcolor="#e58139"] ;
11 -> 12 ;
13 [label=<gini = 0.0<br/>samples = 1<br/>value = [0, 1]<br/>class = Alto Lucro>, fillcolor="#399de5"] ;
11 -> 13 ;
14 [label=<gini = 0.0<br/>samples = 567<br/>value = [869, 0]<br/>class = Baixo Lucro>, fillcolor="#e58139"] ;
6 -> 14 ;
15 [label=<Sub-Category_Encoded &le; 13.0<br/>gini = 0.341<br/>samples = 64<br/>value = [79, 22]<br/>class = Baixo Lucro>, fillcolor="#eca470"] ;
5 -> 15 ;
16 [label=<Sales &le; 62.685<br/>gini = 0.471<br/>samples = 37<br/>value = [36, 22]<br/>class = Baixo Lucro>, fillcolor="#f5ceb2"] ;
15 -> 16 ;
17 [label=<gini = 0.0<br/>samples = 1<br/>value = [0, 3]<br/>class = Alto Lucro>, fillcolor="#399de5"] ;
16 -> 17 ;
18 [label=<Sub-Category_Encoded &le; 10.5<br/>gini = 0.452<br/>samples = 36<br/>value = [36, 19]<br/>class = Baixo Lucro>, fillcolor="#f3c4a2"] ;
16 -> 18 ;
19 [label=<Category_Encoded &le; 0.5<br/>gini = 0.359<br/>samples = 30<br/>value = [36, 11]<br/>class = Baixo Lucro>, fillcolor="#eda876"] ;
18 -> 19 ;
20 [label=<gini = 0.0<br/>samples = 13<br/>value = [21, 0]<br/>class = Baixo Lucro>, fillcolor="#e58139"] ;
19 -> 20 ;
21 [label=<Region_Encoded &le; 2.5<br/>gini = 0.488<br/>samples = 17<br/>value = [15.0, 11.0]<br/>class = Baixo Lucro>, fillcolor="#f8ddca"] ;
19 -> 21 ;
22 [label=<Sub-Category_Encoded &le; 2.5<br/>gini = 0.473<br/>samples = 10<br/>value = [5, 8]<br/>class = Alto Lucro>, fillcolor="#b5daf5"] ;
21 -> 22 ;
23 [label=<gini = 0.0<br/>samples = 2<br/>value = [3, 0]<br/>class = Baixo Lucro>, fillcolor="#e58139"] ;
22 -> 23 ;
24 [label=<Sales &le; 63.93<br/>gini = 0.32<br/>samples = 8<br/>value = [2, 8]<br/>class = Alto Lucro>, fillcolor="#6ab6ec"] ;
22 -> 24 ;
25 [label=<gini = 0.0<br/>samples = 1<br/>value = [1, 0]<br/>class = Baixo Lucro>, fillcolor="#e58139"] ;
24 -> 25 ;
26 [label=<Region_Encoded &le; 0.5<br/>gini = 0.198<br/>samples = 7<br/>value = [1, 8]<br/>class = Alto Lucro>, fillcolor="#52a9e8"] ;
24 -> 26 ;
27 [label=<gini = 0.0<br/>samples = 1<br/>value = [1, 0]<br/>class = Baixo Lucro>, fillcolor="#e58139"] ;
26 -> 27 ;
28 [label=<gini = 0.0<br/>samples = 6<br/>value = [0, 8]<br/>class = Alto Lucro>, fillcolor="#399de5"] ;
26 -> 28 ;
29 [label=<Sales &le; 71.46<br/>gini = 0.355<br/>samples = 7<br/>value = [10, 3]<br/>class = Baixo Lucro>, fillcolor="#eda774"] ;
21 -> 29 ;
30 [label=<gini = 0.0<br/>samples = 5<br/>value = [9, 0]<br/>class = Baixo Lucro>, fillcolor="#e58139"] ;
29 -> 30 ;
31 [label=<State_Encoded &le; 24.0<br/>gini = 0.375<br/>samples = 2<br/>value = [1, 3]<br/>class = Alto Lucro>, fillcolor="#7bbeee"] ;
29 -> 31 ;
32 [label=<gini = 0.0<br/>samples = 1<br/>value = [0, 3]<br/>class = Alto Lucro>, fillcolor="#399de5"] ;
31 -> 32 ;
33 [label=<gini = 0.0<br/>samples = 1<br/>value = [1, 0]<br/>class = Baixo Lucro>, fillcolor="#e58139"] ;
31 -> 33 ;
34 [label=<gini = 0.0<br/>samples = 6<br/>value = [0, 8]<br/>class = Alto Lucro>, fillcolor="#399de5"] ;
18 -> 34 ;
35 [label=<gini = 0.0<br/>samples = 27<br/>value = [43, 0]<br/>class = Baixo Lucro>, fillcolor="#e58139"] ;
15 -> 35 ;
36 [label=<Sub-Category_Encoded &le; 13.0<br/>gini = 0.384<br/>samples = 505<br/>value = [206, 590]<br/>class = Alto Lucro>, fillcolor="#7ebfee"] ;
4 -> 36 ;
37 [label=<Sales &le; 146.235<br/>gini = 0.246<br/>samples = 350<br/>value = [79, 470]<br/>class = Alto Lucro>, fillcolor="#5aade9"] ;
36 -> 37 ;
38 [label=<Quantity &le; 1.5<br/>gini = 0.424<br/>samples = 128<br/>value = [60.0, 137.0]<br/>class = Alto Lucro>, fillcolor="#90c8f0"] ;
37 -> 38 ;
39 [label=<State_Encoded &le; 7.5<br/>gini = 0.278<br/>samples = 8<br/>value = [10, 2]<br/>class = Baixo Lucro>, fillcolor="#ea9a61"] ;
38 -> 39 ;
40 [label=<gini = 0.0<br/>samples = 1<br/>value = [0, 2]<br/>class = Alto Lucro>, fillcolor="#399de5"] ;
39 -> 40 ;
41 [label=<gini = 0.0<br/>samples = 7<br/>value = [10, 0]<br/>class = Baixo Lucro>, fillcolor="#e58139"] ;
39 -> 41 ;
42 [label=<State_Encoded &le; 46.5<br/>gini = 0.394<br/>samples = 120<br/>value = [50, 135]<br/>class = Alto Lucro>, fillcolor="#82c1ef"] ;
38 -> 42 ;
43 [label=<Category_Encoded &le; 0.5<br/>gini = 0.387<br/>samples = 119<br/>value = [48, 135]<br/>class = Alto Lucro>, fillcolor="#7fc0ee"] ;
42 -> 43 ;
44 [label=<Quantity &le; 4.5<br/>gini = 0.496<br/>samples = 37<br/>value = [30.0, 25.0]<br/>class = Baixo Lucro>, fillcolor="#fbeade"] ;
43 -> 44 ;
45 [label=<Quantity &le; 2.5<br/>gini = 0.484<br/>samples = 33<br/>value = [30, 21]<br/>class = Baixo Lucro>, fillcolor="#f7d9c4"] ;
44 -> 45 ;
46 [label=<Sub-Category_Encoded &le; 6.5<br/>gini = 0.444<br/>samples = 13<br/>value = [12, 6]<br/>class = Baixo Lucro>, fillcolor="#f2c09c"] ;
45 -> 46 ;
47 [label=<gini = 0.0<br/>samples = 3<br/>value = [0, 3]<br/>class = Alto Lucro>, fillcolor="#399de5"] ;
46 -> 47 ;
48 [label=<Region_Encoded &le; 0.5<br/>gini = 0.32<br/>samples = 10<br/>value = [12, 3]<br/>class = Baixo Lucro>, fillcolor="#eca06a"] ;
46 -> 48 ;
49 [label=<gini = 0.0<br/>samples = 2<br/>value = [4, 0]<br/>class = Baixo Lucro>, fillcolor="#e58139"] ;
48 -> 49 ;
50 [label=<State_Encoded &le; 10.0<br/>gini = 0.397<br/>samples = 8<br/>value = [8, 3]<br/>class = Baixo Lucro>, fillcolor="#efb083"] ;
48 -> 50 ;
51 [label=<gini = 0.0<br/>samples = 2<br/>value = [2, 0]<br/>class = Baixo Lucro>, fillcolor="#e58139"] ;
50 -> 51 ;
52 [label=<Sales &le; 139.75<br/>gini = 0.444<br/>samples = 6<br/>value = [6, 3]<br/>class = Baixo Lucro>, fillcolor="#f2c09c"] ;
50 -> 52 ;
53 [label=<Sales &le; 126.12<br/>gini = 0.5<br/>samples = 5<br/>value = [3, 3]<br/>class = Baixo Lucro>, fillcolor="#ffffff"] ;
52 -> 53 ;
54 [label=<State_Encoded &le; 18.0<br/>gini = 0.375<br/>samples = 3<br/>value = [3, 1]<br/>class = Baixo Lucro>, fillcolor="#eeab7b"] ;
53 -> 54 ;
55 [label=<gini = 0.0<br/>samples = 1<br/>value = [0, 1]<br/>class = Alto Lucro>, fillcolor="#399de5"] ;
54 -> 55 ;
56 [label=<gini = 0.0<br/>samples = 2<br/>value = [3, 0]<br/>class = Baixo Lucro>, fillcolor="#e58139"] ;
54 -> 56 ;
57 [label=<gini = 0.0<br/>samples = 2<br/>value = [0, 2]<br/>class = Alto Lucro>, fillcolor="#399de5"] ;
53 -> 57 ;
58 [label=<gini = 0.0<br/>samples = 1<br/>value = [3, 0]<br/>class = Baixo Lucro>, fillcolor="#e58139"] ;
52 -> 58 ;
59 [label=<Sales &le; 126.415<br/>gini = 0.496<br/>samples = 20<br/>value = [18, 15]<br/>class = Baixo Lucro>, fillcolor="#fbeade"] ;
45 -> 59 ;
60 [label=<Sales &le; 81.61<br/>gini = 0.454<br/>samples = 16<br/>value = [8, 15]<br/>class = Alto Lucro>, fillcolor="#a3d1f3"] ;
59 -> 60 ;
61 [label=<State_Encoded &le; 24.0<br/>gini = 0.444<br/>samples = 6<br/>value = [6, 3]<br/>class = Baixo Lucro>, fillcolor="#f2c09c"] ;
60 -> 61 ;
62 [label=<Quantity &le; 3.5<br/>gini = 0.375<br/>samples = 5<br/>value = [6, 2]<br/>class = Baixo Lucro>, fillcolor="#eeab7b"] ;
61 -> 62 ;
63 [label=<gini = 0.0<br/>samples = 1<br/>value = [1, 0]<br/>class = Baixo Lucro>, fillcolor="#e58139"] ;
62 -> 63 ;
64 [label=<Sales &le; 78.68<br/>gini = 0.408<br/>samples = 4<br/>value = [5, 2]<br/>class = Baixo Lucro>, fillcolor="#efb388"] ;
62 -> 64 ;
65 [label=<gini = 0.0<br/>samples = 1<br/>value = [0, 2]<br/>class = Alto Lucro>, fillcolor="#399de5"] ;
64 -> 65 ;
66 [label=<gini = 0.0<br/>samples = 3<br/>value = [5, 0]<br/>class = Baixo Lucro>, fillcolor="#e58139"] ;
64 -> 66 ;
67 [label=<gini = 0.0<br/>samples = 1<br/>value = [0, 1]<br/>class = Alto Lucro>, fillcolor="#399de5"] ;
61 -> 67 ;
68 [label=<Quantity &le; 3.5<br/>gini = 0.245<br/>samples = 10<br/>value = [2, 12]<br/>class = Alto Lucro>, fillcolor="#5aade9"] ;
60 -> 68 ;
69 [label=<State_Encoded &le; 15.5<br/>gini = 0.198<br/>samples = 7<br/>value = [1, 8]<br/>class = Alto Lucro>, fillcolor="#52a9e8"] ;
68 -> 69 ;
70 [label=<Sales &le; 121.425<br/>gini = 0.444<br/>samples = 2<br/>value = [1, 2]<br/>class = Alto Lucro>, fillcolor="#9ccef2"] ;
69 -> 70 ;
71 [label=<gini = 0.0<br/>samples = 1<br/>value = [1, 0]<br/>class = Baixo Lucro>, fillcolor="#e58139"] ;
70 -> 71 ;
72 [label=<gini = 0.0<br/>samples = 1<br/>value = [0, 2]<br/>class = Alto Lucro>, fillcolor="#399de5"] ;
70 -> 72 ;
73 [label=<gini = 0.0<br/>samples = 5<br/>value = [0, 6]<br/>class = Alto Lucro>, fillcolor="#399de5"] ;
69 -> 73 ;
74 [label=<Sales &le; 98.92<br/>gini = 0.32<br/>samples = 3<br/>value = [1, 4]<br/>class = Alto Lucro>, fillcolor="#6ab6ec"] ;
68 -> 74 ;
75 [label=<gini = 0.0<br/>samples = 1<br/>value = [1, 0]<br/>class = Baixo Lucro>, fillcolor="#e58139"] ;
74 -> 75 ;
76 [label=<gini = 0.0<br/>samples = 2<br/>value = [0, 4]<br/>class = Alto Lucro>, fillcolor="#399de5"] ;
74 -> 76 ;
77 [label=<gini = 0.0<br/>samples = 4<br/>value = [10, 0]<br/>class = Baixo Lucro>, fillcolor="#e58139"] ;
59 -> 77 ;
78 [label=<gini = 0.0<br/>samples = 4<br/>value = [0, 4]<br/>class = Alto Lucro>, fillcolor="#399de5"] ;
44 -> 78 ;
79 [label=<Region_Encoded &le; 2.5<br/>gini = 0.242<br/>samples = 82<br/>value = [18, 110]<br/>class = Alto Lucro>, fillcolor="#59ade9"] ;
43 -> 79 ;
80 [label=<Sub-Category_Encoded &le; 2.5<br/>gini = 0.172<br/>samples = 55<br/>value = [8, 76]<br/>class = Alto Lucro>, fillcolor="#4ea7e8"] ;
79 -> 80 ;
81 [label=<Quantity &le; 4.5<br/>gini = 0.48<br/>samples = 14<br/>value = [8, 12]<br/>class = Alto Lucro>, fillcolor="#bddef6"] ;
80 -> 81 ;
82 [label=<State_Encoded &le; 21.5<br/>gini = 0.498<br/>samples = 11<br/>value = [8, 7]<br/>class = Baixo Lucro>, fillcolor="#fcefe6"] ;
81 -> 82 ;
83 [label=<Sub-Category_Encoded &le; 1.5<br/>gini = 0.278<br/>samples = 5<br/>value = [1, 5]<br/>class = Alto Lucro>, fillcolor="#61b1ea"] ;
82 -> 83 ;
84 [label=<gini = 0.0<br/>samples = 3<br/>value = [0, 4]<br/>class = Alto Lucro>, fillcolor="#399de5"] ;
83 -> 84 ;
85 [label=<Quantity &le; 3.5<br/>gini = 0.5<br/>samples = 2<br/>value = [1, 1]<br/>class = Baixo Lucro>, fillcolor="#ffffff"] ;
83 -> 85 ;
86 [label=<gini = 0.0<br/>samples = 1<br/>value = [0, 1]<br/>class = Alto Lucro>, fillcolor="#399de5"] ;
85 -> 86 ;
87 [label=<gini = 0.0<br/>samples = 1<br/>value = [1, 0]<br/>class = Baixo Lucro>, fillcolor="#e58139"] ;
85 -> 87 ;
88 [label=<Quantity &le; 2.5<br/>gini = 0.346<br/>samples = 6<br/>value = [7, 2]<br/>class = Baixo Lucro>, fillcolor="#eca572"] ;
82 -> 88 ;
89 [label=<gini = 0.0<br/>samples = 1<br/>value = [2, 0]<br/>class = Baixo Lucro>, fillcolor="#e58139"] ;
88 -> 89 ;
90 [label=<Sub-Category_Encoded &le; 1.5<br/>gini = 0.408<br/>samples = 5<br/>value = [5, 2]<br/>class = Baixo Lucro>, fillcolor="#efb388"] ;
88 -> 90 ;
91 [label=<State_Encoded &le; 29.0<br/>gini = 0.444<br/>samples = 3<br/>value = [1, 2]<br/>class = Alto Lucro>, fillcolor="#9ccef2"] ;
90 -> 91 ;
92 [label=<Sales &le; 96.48<br/>gini = 0.5<br/>samples = 2<br/>value = [1, 1]<br/>class = Baixo Lucro>, fillcolor="#ffffff"] ;
91 -> 92 ;
93 [label=<gini = 0.0<br/>samples = 1<br/>value = [1, 0]<br/>class = Baixo Lucro>, fillcolor="#e58139"] ;
92 -> 93 ;
94 [label=<gini = 0.0<br/>samples = 1<br/>value = [0, 1]<br/>class = Alto Lucro>, fillcolor="#399de5"] ;
92 -> 94 ;
95 [label=<gini = 0.0<br/>samples = 1<br/>value = [0, 1]<br/>class = Alto Lucro>, fillcolor="#399de5"] ;
91 -> 95 ;
96 [label=<gini = 0.0<br/>samples = 2<br/>value = [4, 0]<br/>class = Baixo Lucro>, fillcolor="#e58139"] ;
90 -> 96 ;
97 [label=<gini = 0.0<br/>samples = 3<br/>value = [0, 5]<br/>class = Alto Lucro>, fillcolor="#399de5"] ;
81 -> 97 ;
98 [label=<gini = 0.0<br/>samples = 41<br/>value = [0, 64]<br/>class = Alto Lucro>, fillcolor="#399de5"] ;
80 -> 98 ;
99 [label=<Sub-Category_Encoded &le; 4.5<br/>gini = 0.351<br/>samples = 27<br/>value = [10, 34]<br/>class = Alto Lucro>, fillcolor="#73baed"] ;
79 -> 99 ;
100 [label=<Sales &le; 101.56<br/>gini = 0.486<br/>samples = 16<br/>value = [10, 14]<br/>class = Alto Lucro>, fillcolor="#c6e3f8"] ;
99 -> 100 ;
101 [label=<gini = 0.0<br/>samples = 6<br/>value = [10, 0]<br/>class = Baixo Lucro>, fillcolor="#e58139"] ;
100 -> 101 ;
102 [label=<gini = 0.0<br/>samples = 10<br/>value = [0, 14]<br/>class = Alto Lucro>, fillcolor="#399de5"] ;
100 -> 102 ;
103 [label=<gini = 0.0<br/>samples = 11<br/>value = [0, 20]<br/>class = Alto Lucro>, fillcolor="#399de5"] ;
99 -> 103 ;
104 [label=<gini = 0.0<br/>samples = 1<br/>value = [2, 0]<br/>class = Baixo Lucro>, fillcolor="#e58139"] ;
42 -> 104 ;
105 [label=<Category_Encoded &le; 0.5<br/>gini = 0.102<br/>samples = 222<br/>value = [19, 333]<br/>class = Alto Lucro>, fillcolor="#44a3e6"] ;
37 -> 105 ;
106 [label=<Region_Encoded &le; 1.5<br/>gini = 0.188<br/>samples = 114<br/>value = [19, 162]<br/>class = Alto Lucro>, fillcolor="#50a8e8"] ;
105 -> 106 ;
107 [label=<Sales &le; 267.45<br/>gini = 0.269<br/>samples = 65<br/>value = [16, 84]<br/>class = Alto Lucro>, fillcolor="#5fb0ea"] ;
106 -> 107 ;
108 [label=<State_Encoded &le; 5.5<br/>gini = 0.476<br/>samples = 26<br/>value = [16, 25]<br/>class = Alto Lucro>, fillcolor="#b8dcf6"] ;
107 -> 108 ;
109 [label=<gini = 0.0<br/>samples = 1<br/>value = [1, 0]<br/>class = Baixo Lucro>, fillcolor="#e58139"] ;
108 -> 109 ;
110 [label=<Sub-Category_Encoded &le; 7.0<br/>gini = 0.469<br/>samples = 25<br/>value = [15, 25]<br/>class = Alto Lucro>, fillcolor="#b0d8f5"] ;
108 -> 110 ;
111 [label=<Sales &le; 234.96<br/>gini = 0.475<br/>samples = 13<br/>value = [7, 11]<br/>class = Alto Lucro>, fillcolor="#b7dbf6"] ;
110 -> 111 ;
112 [label=<Quantity &le; 2.5<br/>gini = 0.337<br/>samples = 10<br/>value = [3, 11]<br/>class = Alto Lucro>, fillcolor="#6fb8ec"] ;
111 -> 112 ;
113 [label=<gini = 0.0<br/>samples = 6<br/>value = [0, 8]<br/>class = Alto Lucro>, fillcolor="#399de5"] ;
112 -> 113 ;
114 [label=<Region_Encoded &le; 0.5<br/>gini = 0.5<br/>samples = 4<br/>value = [3, 3]<br/>class = Baixo Lucro>, fillcolor="#ffffff"] ;
112 -> 114 ;
115 [label=<gini = 0.0<br/>samples = 2<br/>value = [0, 3]<br/>class = Alto Lucro>, fillcolor="#399de5"] ;
114 -> 115 ;
116 [label=<gini = 0.0<br/>samples = 2<br/>value = [3, 0]<br/>class = Baixo Lucro>, fillcolor="#e58139"] ;
114 -> 116 ;
117 [label=<gini = 0.0<br/>samples = 3<br/>value = [4, 0]<br/>class = Baixo Lucro>, fillcolor="#e58139"] ;
111 -> 117 ;
118 [label=<Quantity &le; 4.5<br/>gini = 0.463<br/>samples = 12<br/>value = [8, 14]<br/>class = Alto Lucro>, fillcolor="#aad5f4"] ;
110 -> 118 ;
119 [label=<Quantity &le; 3.5<br/>gini = 0.488<br/>samples = 10<br/>value = [8, 11]<br/>class = Alto Lucro>, fillcolor="#c9e4f8"] ;
118 -> 119 ;
120 [label=<Sales &le; 212.045<br/>gini = 0.43<br/>samples = 9<br/>value = [5, 11]<br/>class = Alto Lucro>, fillcolor="#93caf1"] ;
119 -> 120 ;
121 [label=<State_Encoded &le; 18.5<br/>gini = 0.337<br/>samples = 8<br/>value = [3, 11]<br/>class = Alto Lucro>, fillcolor="#6fb8ec"] ;
120 -> 121 ;
122 [label=<State_Encoded &le; 12.0<br/>gini = 0.469<br/>samples = 3<br/>value = [3, 5]<br/>class = Alto Lucro>, fillcolor="#b0d8f5"] ;
121 -> 122 ;
123 [label=<gini = 0.0<br/>samples = 1<br/>value = [0, 3]<br/>class = Alto Lucro>, fillcolor="#399de5"] ;
122 -> 123 ;
124 [label=<Quantity &le; 2.5<br/>gini = 0.48<br/>samples = 2<br/>value = [3, 2]<br/>class = Baixo Lucro>, fillcolor="#f6d5bd"] ;
122 -> 124 ;
125 [label=<gini = 0.0<br/>samples = 1<br/>value = [3, 0]<br/>class = Baixo Lucro>, fillcolor="#e58139"] ;
124 -> 125 ;
126 [label=<gini = 0.0<br/>samples = 1<br/>value = [0, 2]<br/>class = Alto Lucro>, fillcolor="#399de5"] ;
124 -> 126 ;
127 [label=<gini = 0.0<br/>samples = 5<br/>value = [0, 6]<br/>class = Alto Lucro>, fillcolor="#399de5"] ;
121 -> 127 ;
128 [label=<gini = 0.0<br/>samples = 1<br/>value = [2, 0]<br/>class = Baixo Lucro>, fillcolor="#e58139"] ;
120 -> 128 ;
129 [label=<gini = 0.0<br/>samples = 1<br/>value = [3, 0]<br/>class = Baixo Lucro>, fillcolor="#e58139"] ;
119 -> 129 ;
130 [label=<gini = 0.0<br/>samples = 2<br/>value = [0, 3]<br/>class = Alto Lucro>, fillcolor="#399de5"] ;
118 -> 130 ;
131 [label=<gini = 0.0<br/>samples = 39<br/>value = [0, 59]<br/>class = Alto Lucro>, fillcolor="#399de5"] ;
107 -> 131 ;
132 [label=<State_Encoded &le; 6.0<br/>gini = 0.071<br/>samples = 49<br/>value = [3, 78]<br/>class = Alto Lucro>, fillcolor="#41a1e6"] ;
106 -> 132 ;
133 [label=<Region_Encoded &le; 2.5<br/>gini = 0.211<br/>samples = 15<br/>value = [3, 22]<br/>class = Alto Lucro>, fillcolor="#54aae9"] ;
132 -> 133 ;
134 [label=<gini = 0.0<br/>samples = 3<br/>value = [0, 4]<br/>class = Alto Lucro>, fillcolor="#399de5"] ;
133 -> 134 ;
135 [label=<Sales &le; 206.1<br/>gini = 0.245<br/>samples = 12<br/>value = [3, 18]<br/>class = Alto Lucro>, fillcolor="#5aade9"] ;
133 -> 135 ;
136 [label=<gini = 0.0<br/>samples = 5<br/>value = [0, 7]<br/>class = Alto Lucro>, fillcolor="#399de5"] ;
135 -> 136 ;
137 [label=<Quantity &le; 3.5<br/>gini = 0.337<br/>samples = 7<br/>value = [3, 11]<br/>class = Alto Lucro>, fillcolor="#6fb8ec"] ;
135 -> 137 ;
138 [label=<Sales &le; 275.295<br/>gini = 0.48<br/>samples = 2<br/>value = [2, 3]<br/>class = Alto Lucro>, fillcolor="#bddef6"] ;
137 -> 138 ;
139 [label=<gini = 0.0<br/>samples = 1<br/>value = [2, 0]<br/>class = Baixo Lucro>, fillcolor="#e58139"] ;
138 -> 139 ;
140 [label=<gini = 0.0<br/>samples = 1<br/>value = [0, 3]<br/>class = Alto Lucro>, fillcolor="#399de5"] ;
138 -> 140 ;
141 [label=<Sales &le; 211.5<br/>gini = 0.198<br/>samples = 5<br/>value = [1, 8]<br/>class = Alto Lucro>, fillcolor="#52a9e8"] ;
137 -> 141 ;
142 [label=<gini = 0.0<br/>samples = 1<br/>value = [1, 0]<br/>class = Baixo Lucro>, fillcolor="#e58139"] ;
141 -> 142 ;
143 [label=<gini = 0.0<br/>samples = 4<br/>value = [0, 8]<br/>class = Alto Lucro>, fillcolor="#399de5"] ;
141 -> 143 ;
144 [label=<gini = 0.0<br/>samples = 34<br/>value = [0, 56]<br/>class = Alto Lucro>, fillcolor="#399de5"] ;
132 -> 144 ;
145 [label=<gini = 0.0<br/>samples = 108<br/>value = [0, 171]<br/>class = Alto Lucro>, fillcolor="#399de5"] ;
105 -> 145 ;
146 [label=<Category_Encoded &le; 0.5<br/>gini = 0.5<br/>samples = 155<br/>value = [127.0, 120.0]<br/>class = Baixo Lucro>, fillcolor="#fef8f4"] ;
36 -> 146 ;
147 [label=<Quantity &le; 2.5<br/>gini = 0.133<br/>samples = 27<br/>value = [3, 39]<br/>class = Alto Lucro>, fillcolor="#48a5e7"] ;
146 -> 147 ;
148 [label=<Sales &le; 229.98<br/>gini = 0.42<br/>samples = 9<br/>value = [3, 7]<br/>class = Alto Lucro>, fillcolor="#8ec7f0"] ;
147 -> 148 ;
149 [label=<gini = 0.0<br/>samples = 3<br/>value = [3, 0]<br/>class = Baixo Lucro>, fillcolor="#e58139"] ;
148 -> 149 ;
150 [label=<gini = 0.0<br/>samples = 6<br/>value = [0, 7]<br/>class = Alto Lucro>, fillcolor="#399de5"] ;
148 -> 150 ;
151 [label=<gini = 0.0<br/>samples = 18<br/>value = [0, 32]<br/>class = Alto Lucro>, fillcolor="#399de5"] ;
147 -> 151 ;
152 [label=<Quantity &le; 1.5<br/>gini = 0.478<br/>samples = 128<br/>value = [124, 81]<br/>class = Baixo Lucro>, fillcolor="#f6d3ba"] ;
146 -> 152 ;
153 [label=<State_Encoded &le; 7.5<br/>gini = 0.355<br/>samples = 5<br/>value = [10, 3]<br/>class = Baixo Lucro>, fillcolor="#eda774"] ;
152 -> 153 ;
154 [label=<gini = 0.0<br/>samples = 1<br/>value = [0, 3]<br/>class = Alto Lucro>, fillcolor="#399de5"] ;
153 -> 154 ;
155 [label=<gini = 0.0<br/>samples = 4<br/>value = [10, 0]<br/>class = Baixo Lucro>, fillcolor="#e58139"] ;
153 -> 155 ;
156 [label=<Quantity &le; 4.5<br/>gini = 0.482<br/>samples = 123<br/>value = [114, 78]<br/>class = Baixo Lucro>, fillcolor="#f7d7c0"] ;
152 -> 156 ;
157 [label=<Sales &le; 479.28<br/>gini = 0.488<br/>samples = 89<br/>value = [78.0, 57.0]<br/>class = Baixo Lucro>, fillcolor="#f8ddca"] ;
156 -> 157 ;
158 [label=<Quantity &le; 2.5<br/>gini = 0.344<br/>samples = 63<br/>value = [74, 21]<br/>class = Baixo Lucro>, fillcolor="#eca571"] ;
157 -> 158 ;
159 [label=<Sales &le; 293.2<br/>gini = 0.438<br/>samples = 21<br/>value = [25, 12]<br/>class = Baixo Lucro>, fillcolor="#f1bd98"] ;
158 -> 159 ;
160 [label=<State_Encoded &le; 7.5<br/>gini = 0.074<br/>samples = 12<br/>value = [25, 1]<br/>class = Baixo Lucro>, fillcolor="#e68641"] ;
159 -> 160 ;
161 [label=<Sales &le; 108.69<br/>gini = 0.245<br/>samples = 5<br/>value = [6, 1]<br/>class = Baixo Lucro>, fillcolor="#e9965a"] ;
160 -> 161 ;
162 [label=<gini = 0.0<br/>samples = 2<br/>value = [3, 0]<br/>class = Baixo Lucro>, fillcolor="#e58139"] ;
161 -> 162 ;
163 [label=<Sales &le; 126.83<br/>gini = 0.375<br/>samples = 3<br/>value = [3, 1]<br/>class = Baixo Lucro>, fillcolor="#eeab7b"] ;
161 -> 163 ;
164 [label=<gini = 0.0<br/>samples = 1<br/>value = [0, 1]<br/>class = Alto Lucro>, fillcolor="#399de5"] ;
163 -> 164 ;
165 [label=<gini = 0.0<br/>samples = 2<br/>value = [3, 0]<br/>class = Baixo Lucro>, fillcolor="#e58139"] ;
163 -> 165 ;
166 [label=<gini = 0.0<br/>samples = 7<br/>value = [19, 0]<br/>class = Baixo Lucro>, fillcolor="#e58139"] ;
160 -> 166 ;
167 [label=<gini = 0.0<br/>samples = 9<br/>value = [0, 11]<br/>class = Alto Lucro>, fillcolor="#399de5"] ;
159 -> 167 ;
168 [label=<Sales &le; 190.245<br/>gini = 0.262<br/>samples = 42<br/>value = [49, 9]<br/>class = Baixo Lucro>, fillcolor="#ea985d"] ;
158 -> 168 ;
169 [label=<Quantity &le; 3.5<br/>gini = 0.455<br/>samples = 13<br/>value = [13, 7]<br/>class = Baixo Lucro>, fillcolor="#f3c5a4"] ;
168 -> 169 ;
170 [label=<State_Encoded &le; 26.0<br/>gini = 0.496<br/>samples = 7<br/>value = [6, 5]<br/>class = Baixo Lucro>, fillcolor="#fbeade"] ;
169 -> 170 ;
171 [label=<State_Encoded &le; 6.0<br/>gini = 0.444<br/>samples = 6<br/>value = [6, 3]<br/>class = Baixo Lucro>, fillcolor="#f2c09c"] ;
170 -> 171 ;
172 [label=<Sales &le; 107.655<br/>gini = 0.49<br/>samples = 4<br/>value = [4, 3]<br/>class = Baixo Lucro>, fillcolor="#f8e0ce"] ;
171 -> 172 ;
173 [label=<gini = 0.0<br/>samples = 1<br/>value = [3, 0]<br/>class = Baixo Lucro>, fillcolor="#e58139"] ;
172 -> 173 ;
174 [label=<Sales &le; 170.49<br/>gini = 0.375<br/>samples = 3<br/>value = [1, 3]<br/>class = Alto Lucro>, fillcolor="#7bbeee"] ;
172 -> 174 ;
175 [label=<Sales &le; 134.94<br/>gini = 0.5<br/>samples = 2<br/>value = [1, 1]<br/>class = Baixo Lucro>, fillcolor="#ffffff"] ;
174 -> 175 ;
176 [label=<gini = 0.0<br/>samples = 1<br/>value = [0, 1]<br/>class = Alto Lucro>, fillcolor="#399de5"] ;
175 -> 176 ;
177 [label=<gini = 0.0<br/>samples = 1<br/>value = [1, 0]<br/>class = Baixo Lucro>, fillcolor="#e58139"] ;
175 -> 177 ;
178 [label=<gini = 0.0<br/>samples = 1<br/>value = [0, 2]<br/>class = Alto Lucro>, fillcolor="#399de5"] ;
174 -> 178 ;
179 [label=<gini = 0.0<br/>samples = 2<br/>value = [2, 0]<br/>class = Baixo Lucro>, fillcolor="#e58139"] ;
171 -> 179 ;
180 [label=<gini = 0.0<br/>samples = 1<br/>value = [0, 2]<br/>class = Alto Lucro>, fillcolor="#399de5"] ;
170 -> 180 ;
181 [label=<Sales &le; 135.98<br/>gini = 0.346<br/>samples = 6<br/>value = [7, 2]<br/>class = Baixo Lucro>, fillcolor="#eca572"] ;
169 -> 181 ;
182 [label=<gini = 0.0<br/>samples = 5<br/>value = [7, 0]<br/>class = Baixo Lucro>, fillcolor="#e58139"] ;
181 -> 182 ;
183 [label=<gini = 0.0<br/>samples = 1<br/>value = [0, 2]<br/>class = Alto Lucro>, fillcolor="#399de5"] ;
181 -> 183 ;
184 [label=<Sales &le; 462.53<br/>gini = 0.1<br/>samples = 29<br/>value = [36, 2]<br/>class = Baixo Lucro>, fillcolor="#e68844"] ;
168 -> 184 ;
185 [label=<Quantity &le; 3.5<br/>gini = 0.054<br/>samples = 27<br/>value = [35, 1]<br/>class = Baixo Lucro>, fillcolor="#e6853f"] ;
184 -> 185 ;
186 [label=<gini = 0.0<br/>samples = 19<br/>value = [25, 0]<br/>class = Baixo Lucro>, fillcolor="#e58139"] ;
185 -> 186 ;
187 [label=<State_Encoded &le; 21.0<br/>gini = 0.165<br/>samples = 8<br/>value = [10, 1]<br/>class = Baixo Lucro>, fillcolor="#e88e4d"] ;
185 -> 187 ;
188 [label=<gini = 0.0<br/>samples = 4<br/>value = [7, 0]<br/>class = Baixo Lucro>, fillcolor="#e58139"] ;
187 -> 188 ;
189 [label=<Region_Encoded &le; 1.5<br/>gini = 0.375<br/>samples = 4<br/>value = [3, 1]<br/>class = Baixo Lucro>, fillcolor="#eeab7b"] ;
187 -> 189 ;
190 [label=<Sales &le; 338.14<br/>gini = 0.5<br/>samples = 2<br/>value = [1, 1]<br/>class = Baixo Lucro>, fillcolor="#ffffff"] ;
189 -> 190 ;
191 [label=<gini = 0.0<br/>samples = 1<br/>value = [0, 1]<br/>class = Alto Lucro>, fillcolor="#399de5"] ;
190 -> 191 ;
192 [label=<gini = 0.0<br/>samples = 1<br/>value = [1, 0]<br/>class = Baixo Lucro>, fillcolor="#e58139"] ;
190 -> 192 ;
193 [label=<gini = 0.0<br/>samples = 2<br/>value = [2, 0]<br/>class = Baixo Lucro>, fillcolor="#e58139"] ;
189 -> 193 ;
194 [label=<State_Encoded &le; 15.0<br/>gini = 0.5<br/>samples = 2<br/>value = [1, 1]<br/>class = Baixo Lucro>, fillcolor="#ffffff"] ;
184 -> 194 ;
195 [label=<gini = 0.0<br/>samples = 1<br/>value = [1, 0]<br/>class = Baixo Lucro>, fillcolor="#e58139"] ;
194 -> 195 ;
196 [label=<gini = 0.0<br/>samples = 1<br/>value = [0, 1]<br/>class = Alto Lucro>, fillcolor="#399de5"] ;
194 -> 196 ;
197 [label=<State_Encoded &le; 29.0<br/>gini = 0.18<br/>samples = 26<br/>value = [4, 36]<br/>class = Alto Lucro>, fillcolor="#4fa8e8"] ;
157 -> 197 ;
198 [label=<Region_Encoded &le; 1.5<br/>gini = 0.071<br/>samples = 18<br/>value = [1, 26]<br/>class = Alto Lucro>, fillcolor="#41a1e6"] ;
197 -> 198 ;
199 [label=<Quantity &le; 3.5<br/>gini = 0.165<br/>samples = 8<br/>value = [1, 10]<br/>class = Alto Lucro>, fillcolor="#4da7e8"] ;
198 -> 199 ;
200 [label=<gini = 0.0<br/>samples = 6<br/>value = [0, 9]<br/>class = Alto Lucro>, fillcolor="#399de5"] ;
199 -> 200 ;
201 [label=<Sales &le; 1572.06<br/>gini = 0.5<br/>samples = 2<br/>value = [1, 1]<br/>class = Baixo Lucro>, fillcolor="#ffffff"] ;
199 -> 201 ;
202 [label=<gini = 0.0<br/>samples = 1<br/>value = [1, 0]<br/>class = Baixo Lucro>, fillcolor="#e58139"] ;
201 -> 202 ;
203 [label=<gini = 0.0<br/>samples = 1<br/>value = [0, 1]<br/>class = Alto Lucro>, fillcolor="#399de5"] ;
201 -> 203 ;
204 [label=<gini = 0.0<br/>samples = 10<br/>value = [0, 16]<br/>class = Alto Lucro>, fillcolor="#399de5"] ;
198 -> 204 ;
205 [label=<State_Encoded &le; 32.0<br/>gini = 0.355<br/>samples = 8<br/>value = [3, 10]<br/>class = Alto Lucro>, fillcolor="#74baed"] ;
197 -> 205 ;
206 [label=<Sales &le; 518.61<br/>gini = 0.278<br/>samples = 4<br/>value = [1, 5]<br/>class = Alto Lucro>, fillcolor="#61b1ea"] ;
205 -> 206 ;
207 [label=<gini = 0.0<br/>samples = 1<br/>value = [1, 0]<br/>class = Baixo Lucro>, fillcolor="#e58139"] ;
206 -> 207 ;
208 [label=<gini = 0.0<br/>samples = 3<br/>value = [0, 5]<br/>class = Alto Lucro>, fillcolor="#399de5"] ;
206 -> 208 ;
209 [label=<Sales &le; 542.81<br/>gini = 0.408<br/>samples = 4<br/>value = [2, 5]<br/>class = Alto Lucro>, fillcolor="#88c4ef"] ;
205 -> 209 ;
210 [label=<gini = 0.0<br/>samples = 2<br/>value = [2, 0]<br/>class = Baixo Lucro>, fillcolor="#e58139"] ;
209 -> 210 ;
211 [label=<gini = 0.0<br/>samples = 2<br/>value = [0, 5]<br/>class = Alto Lucro>, fillcolor="#399de5"] ;
209 -> 211 ;
212 [label=<Region_Encoded &le; 2.5<br/>gini = 0.465<br/>samples = 34<br/>value = [36, 21]<br/>class = Baixo Lucro>, fillcolor="#f4caac"] ;
156 -> 212 ;
213 [label=<Region_Encoded &le; 1.5<br/>gini = 0.499<br/>samples = 19<br/>value = [15, 16]<br/>class = Alto Lucro>, fillcolor="#f3f9fd"] ;
212 -> 213 ;
214 [label=<Sales &le; 530.8<br/>gini = 0.49<br/>samples = 12<br/>value = [9, 12]<br/>class = Alto Lucro>, fillcolor="#cee6f8"] ;
213 -> 214 ;
215 [label=<State_Encoded &le; 13.0<br/>gini = 0.48<br/>samples = 8<br/>value = [9, 6]<br/>class = Baixo Lucro>, fillcolor="#f6d5bd"] ;
214 -> 215 ;
216 [label=<gini = 0.0<br/>samples = 1<br/>value = [0, 3]<br/>class = Alto Lucro>, fillcolor="#399de5"] ;
215 -> 216 ;
217 [label=<Region_Encoded &le; 0.5<br/>gini = 0.375<br/>samples = 7<br/>value = [9, 3]<br/>class = Baixo Lucro>, fillcolor="#eeab7b"] ;
215 -> 217 ;
218 [label=<gini = 0.0<br/>samples = 1<br/>value = [2, 0]<br/>class = Baixo Lucro>, fillcolor="#e58139"] ;
217 -> 218 ;
219 [label=<State_Encoded &le; 29.0<br/>gini = 0.42<br/>samples = 6<br/>value = [7, 3]<br/>class = Baixo Lucro>, fillcolor="#f0b78e"] ;
217 -> 219 ;
220 [label=<gini = 0.0<br/>samples = 1<br/>value = [0, 1]<br/>class = Alto Lucro>, fillcolor="#399de5"] ;
219 -> 220 ;
221 [label=<Sales &le; 387.025<br/>gini = 0.346<br/>samples = 5<br/>value = [7, 2]<br/>class = Baixo Lucro>, fillcolor="#eca572"] ;
219 -> 221 ;
222 [label=<Sales &le; 284.725<br/>gini = 0.5<br/>samples = 2<br/>value = [2, 2]<br/>class = Baixo Lucro>, fillcolor="#ffffff"] ;
221 -> 222 ;
223 [label=<gini = 0.0<br/>samples = 1<br/>value = [2, 0]<br/>class = Baixo Lucro>, fillcolor="#e58139"] ;
222 -> 223 ;
224 [label=<gini = 0.0<br/>samples = 1<br/>value = [0, 2]<br/>class = Alto Lucro>, fillcolor="#399de5"] ;
222 -> 224 ;
225 [label=<gini = 0.0<br/>samples = 3<br/>value = [5, 0]<br/>class = Baixo Lucro>, fillcolor="#e58139"] ;
221 -> 225 ;
226 [label=<gini = 0.0<br/>samples = 4<br/>value = [0, 6]<br/>class = Alto Lucro>, fillcolor="#399de5"] ;
214 -> 226 ;
227 [label=<Sales &le; 590.45<br/>gini = 0.48<br/>samples = 7<br/>value = [6, 4]<br/>class = Baixo Lucro>, fillcolor="#f6d5bd"] ;
213 -> 227 ;
228 [label=<State_Encoded &le; 30.0<br/>gini = 0.245<br/>samples = 5<br/>value = [6, 1]<br/>class = Baixo Lucro>, fillcolor="#e9965a"] ;
227 -> 228 ;
229 [label=<Sales &le; 240.0<br/>gini = 0.444<br/>samples = 2<br/>value = [2, 1]<br/>class = Baixo Lucro>, fillcolor="#f2c09c"] ;
228 -> 229 ;
230 [label=<gini = 0.0<br/>samples = 1<br/>value = [0, 1]<br/>class = Alto Lucro>, fillcolor="#399de5"] ;
229 -> 230 ;
231 [label=<gini = 0.0<br/>samples = 1<br/>value = [2, 0]<br/>class = Baixo Lucro>, fillcolor="#e58139"] ;
229 -> 231 ;
232 [label=<gini = 0.0<br/>samples = 3<br/>value = [4, 0]<br/>class = Baixo Lucro>, fillcolor="#e58139"] ;
228 -> 232 ;
233 [label=<gini = 0.0<br/>samples = 2<br/>value = [0, 3]<br/>class = Alto Lucro>, fillcolor="#399de5"] ;
227 -> 233 ;
234 [label=<Sub-Category_Encoded &le; 14.5<br/>gini = 0.311<br/>samples = 15<br/>value = [21, 5]<br/>class = Baixo Lucro>, fillcolor="#eb9f68"] ;
212 -> 234 ;
235 [label=<Sales &le; 1001.2<br/>gini = 0.33<br/>samples = 14<br/>value = [19, 5]<br/>class = Baixo Lucro>, fillcolor="#eca26d"] ;
234 -> 235 ;
236 [label=<State_Encoded &le; 27.5<br/>gini = 0.172<br/>samples = 12<br/>value = [19, 2]<br/>class = Baixo Lucro>, fillcolor="#e88e4e"] ;
235 -> 236 ;
237 [label=<Sales &le; 150.15<br/>gini = 0.111<br/>samples = 9<br/>value = [16, 1]<br/>class = Baixo Lucro>, fillcolor="#e78945"] ;
236 -> 237 ;
238 [label=<Sales &le; 110.85<br/>gini = 0.444<br/>samples = 2<br/>value = [2, 1]<br/>class = Baixo Lucro>, fillcolor="#f2c09c"] ;
237 -> 238 ;
239 [label=<gini = 0.0<br/>samples = 1<br/>value = [2, 0]<br/>class = Baixo Lucro>, fillcolor="#e58139"] ;
238 -> 239 ;
240 [label=<gini = 0.0<br/>samples = 1<br/>value = [0, 1]<br/>class = Alto Lucro>, fillcolor="#399de5"] ;
238 -> 240 ;
241 [label=<gini = 0.0<br/>samples = 7<br/>value = [14, 0]<br/>class = Baixo Lucro>, fillcolor="#e58139"] ;
237 -> 241 ;
242 [label=<Sales &le; 264.9<br/>gini = 0.375<br/>samples = 3<br/>value = [3, 1]<br/>class = Baixo Lucro>, fillcolor="#eeab7b"] ;
236 -> 242 ;
243 [label=<gini = 0.0<br/>samples = 2<br/>value = [3, 0]<br/>class = Baixo Lucro>, fillcolor="#e58139"] ;
242 -> 243 ;
244 [label=<gini = 0.0<br/>samples = 1<br/>value = [0, 1]<br/>class = Alto Lucro>, fillcolor="#399de5"] ;
242 -> 244 ;
245 [label=<gini = 0.0<br/>samples = 2<br/>value = [0, 3]<br/>class = Alto Lucro>, fillcolor="#399de5"] ;
235 -> 245 ;
246 [label=<gini = 0.0<br/>samples = 1<br/>value = [2, 0]<br/>class = Baixo Lucro>, fillcolor="#e58139"] ;
234 -> 246 ;
247 [label=<Sub-Category_Encoded &le; 3.0<br/>gini = 0.499<br/>samples = 38<br/>value = [30, 32]<br/>class = Alto Lucro>, fillcolor="#f3f9fd"] ;
3 -> 247 ;
248 [label=<Sales &le; 137.088<br/>gini = 0.469<br/>samples = 6<br/>value = [3, 5]<br/>class = Alto Lucro>, fillcolor="#b0d8f5"] ;
247 -> 248 ;
249 [label=<gini = 0.0<br/>samples = 2<br/>value = [3, 0]<br/>class = Baixo Lucro>, fillcolor="#e58139"] ;
248 -> 249 ;
250 [label=<gini = 0.0<br/>samples = 4<br/>value = [0, 5]<br/>class = Alto Lucro>, fillcolor="#399de5"] ;
248 -> 250 ;
251 [label=<Quantity &le; 4.5<br/>gini = 0.5<br/>samples = 32<br/>value = [27, 27]<br/>class = Baixo Lucro>, fillcolor="#ffffff"] ;
247 -> 251 ;
252 [label=<Sales &le; 249.705<br/>gini = 0.485<br/>samples = 27<br/>value = [17, 24]<br/>class = Alto Lucro>, fillcolor="#c5e2f7"] ;
251 -> 252 ;
253 [label=<Sales &le; 186.975<br/>gini = 0.124<br/>samples = 13<br/>value = [14, 1]<br/>class = Baixo Lucro>, fillcolor="#e78a47"] ;
252 -> 253 ;
254 [label=<gini = 0.0<br/>samples = 8<br/>value = [10, 0]<br/>class = Baixo Lucro>, fillcolor="#e58139"] ;
253 -> 254 ;
255 [label=<Quantity &le; 2.5<br/>gini = 0.32<br/>samples = 5<br/>value = [4, 1]<br/>class = Baixo Lucro>, fillcolor="#eca06a"] ;
253 -> 255 ;
256 [label=<gini = 0.0<br/>samples = 2<br/>value = [2, 0]<br/>class = Baixo Lucro>, fillcolor="#e58139"] ;
255 -> 256 ;
257 [label=<Sales &le; 200.016<br/>gini = 0.444<br/>samples = 3<br/>value = [2, 1]<br/>class = Baixo Lucro>, fillcolor="#f2c09c"] ;
255 -> 257 ;
258 [label=<gini = 0.0<br/>samples = 1<br/>value = [0, 1]<br/>class = Alto Lucro>, fillcolor="#399de5"] ;
257 -> 258 ;
259 [label=<gini = 0.0<br/>samples = 2<br/>value = [2, 0]<br/>class = Baixo Lucro>, fillcolor="#e58139"] ;
257 -> 259 ;
260 [label=<Sales &le; 344.664<br/>gini = 0.204<br/>samples = 14<br/>value = [3, 23]<br/>class = Alto Lucro>, fillcolor="#53aae8"] ;
252 -> 260 ;
261 [label=<Quantity &le; 2.5<br/>gini = 0.375<br/>samples = 6<br/>value = [3, 9]<br/>class = Alto Lucro>, fillcolor="#7bbeee"] ;
260 -> 261 ;
262 [label=<gini = 0.0<br/>samples = 3<br/>value = [0, 8]<br/>class = Alto Lucro>, fillcolor="#399de5"] ;
261 -> 262 ;
263 [label=<Quantity &le; 3.5<br/>gini = 0.375<br/>samples = 3<br/>value = [3, 1]<br/>class = Baixo Lucro>, fillcolor="#eeab7b"] ;
261 -> 263 ;
264 [label=<Sales &le; 299.646<br/>gini = 0.444<br/>samples = 2<br/>value = [2, 1]<br/>class = Baixo Lucro>, fillcolor="#f2c09c"] ;
263 -> 264 ;
265 [label=<gini = 0.0<br/>samples = 1<br/>value = [2, 0]<br/>class = Baixo Lucro>, fillcolor="#e58139"] ;
264 -> 265 ;
266 [label=<gini = 0.0<br/>samples = 1<br/>value = [0, 1]<br/>class = Alto Lucro>, fillcolor="#399de5"] ;
264 -> 266 ;
267 [label=<gini = 0.0<br/>samples = 1<br/>value = [1, 0]<br/>class = Baixo Lucro>, fillcolor="#e58139"] ;
263 -> 267 ;
268 [label=<gini = 0.0<br/>samples = 8<br/>value = [0, 14]<br/>class = Alto Lucro>, fillcolor="#399de5"] ;
260 -> 268 ;
269 [label=<Sales &le; 916.155<br/>gini = 0.355<br/>samples = 5<br/>value = [10, 3]<br/>class = Baixo Lucro>, fillcolor="#eda774"] ;
251 -> 269 ;
270 [label=<gini = 0.0<br/>samples = 3<br/>value = [10, 0]<br/>class = Baixo Lucro>, fillcolor="#e58139"] ;
269 -> 270 ;
271 [label=<gini = 0.0<br/>samples = 2<br/>value = [0, 3]<br/>class = Alto Lucro>, fillcolor="#399de5"] ;
269 -> 271 ;
272 [label=<Sub-Category_Encoded &le; 7.5<br/>gini = 0.5<br/>samples = 377<br/>value = [296, 304]<br/>class = Alto Lucro>, fillcolor="#fafcfe"] ;
2 -> 272 ;
273 [label=<Discount &le; 0.05<br/>gini = 0.468<br/>samples = 146<br/>value = [86, 144]<br/>class = Alto Lucro>, fillcolor="#afd8f5"] ;
272 -> 273 ;
274 [label=<Category_Encoded &le; 0.5<br/>gini = 0.481<br/>samples = 136<br/>value = [86.0, 127.0]<br/>class = Alto Lucro>, fillcolor="#bfdff7"] ;
273 -> 274 ;
275 [label=<gini = 0.0<br/>samples = 21<br/>value = [0, 35]<br/>class = Alto Lucro>, fillcolor="#399de5"] ;
274 -> 275 ;
276 [label=<Sales &le; 63.13<br/>gini = 0.499<br/>samples = 115<br/>value = [86.0, 92.0]<br/>class = Alto Lucro>, fillcolor="#f2f9fd"] ;
274 -> 276 ;
277 [label=<gini = 0.0<br/>samples = 55<br/>value = [78, 0]<br/>class = Baixo Lucro>, fillcolor="#e58139"] ;
276 -> 277 ;
278 [label=<Sales &le; 94.66<br/>gini = 0.147<br/>samples = 60<br/>value = [8, 92]<br/>class = Alto Lucro>, fillcolor="#4aa6e7"] ;
276 -> 278 ;
279 [label=<State_Encoded &le; 4.0<br/>gini = 0.465<br/>samples = 11<br/>value = [7, 12]<br/>class = Alto Lucro>, fillcolor="#acd6f4"] ;
278 -> 279 ;
280 [label=<gini = 0.0<br/>samples = 1<br/>value = [2, 0]<br/>class = Baixo Lucro>, fillcolor="#e58139"] ;
279 -> 280 ;
281 [label=<Sub-Category_Encoded &le; 2.0<br/>gini = 0.415<br/>samples = 10<br/>value = [5, 12]<br/>class = Alto Lucro>, fillcolor="#8bc6f0"] ;
279 -> 281 ;
282 [label=<Quantity &le; 7.5<br/>gini = 0.469<br/>samples = 5<br/>value = [5, 3]<br/>class = Baixo Lucro>, fillcolor="#f5cdb0"] ;
281 -> 282 ;
283 [label=<gini = 0.0<br/>samples = 2<br/>value = [3, 0]<br/>class = Baixo Lucro>, fillcolor="#e58139"] ;
282 -> 283 ;
284 [label=<Quantity &le; 8.5<br/>gini = 0.48<br/>samples = 3<br/>value = [2, 3]<br/>class = Alto Lucro>, fillcolor="#bddef6"] ;
282 -> 284 ;
285 [label=<gini = 0.0<br/>samples = 1<br/>value = [0, 3]<br/>class = Alto Lucro>, fillcolor="#399de5"] ;
284 -> 285 ;
286 [label=<gini = 0.0<br/>samples = 2<br/>value = [2, 0]<br/>class = Baixo Lucro>, fillcolor="#e58139"] ;
284 -> 286 ;
287 [label=<gini = 0.0<br/>samples = 5<br/>value = [0, 9]<br/>class = Alto Lucro>, fillcolor="#399de5"] ;
281 -> 287 ;
288 [label=<State_Encoded &le; 29.5<br/>gini = 0.024<br/>samples = 49<br/>value = [1, 80]<br/>class = Alto Lucro>, fillcolor="#3b9ee5"] ;
278 -> 288 ;
289 [label=<gini = 0.0<br/>samples = 40<br/>value = [0, 68]<br/>class = Alto Lucro>, fillcolor="#399de5"] ;
288 -> 289 ;
290 [label=<State_Encoded &le; 32.0<br/>gini = 0.142<br/>samples = 9<br/>value = [1, 12]<br/>class = Alto Lucro>, fillcolor="#49a5e7"] ;
288 -> 290 ;
291 [label=<Sub-Category_Encoded &le; 1.5<br/>gini = 0.32<br/>samples = 4<br/>value = [1, 4]<br/>class = Alto Lucro>, fillcolor="#6ab6ec"] ;
290 -> 291 ;
292 [label=<gini = 0.0<br/>samples = 2<br/>value = [0, 3]<br/>class = Alto Lucro>, fillcolor="#399de5"] ;
291 -> 292 ;
293 [label=<Quantity &le; 9.0<br/>gini = 0.5<br/>samples = 2<br/>value = [1, 1]<br/>class = Baixo Lucro>, fillcolor="#ffffff"] ;
291 -> 293 ;
294 [label=<gini = 0.0<br/>samples = 1<br/>value = [0, 1]<br/>class = Alto Lucro>, fillcolor="#399de5"] ;
293 -> 294 ;
295 [label=<gini = 0.0<br/>samples = 1<br/>value = [1, 0]<br/>class = Baixo Lucro>, fillcolor="#e58139"] ;
293 -> 295 ;
296 [label=<gini = 0.0<br/>samples = 5<br/>value = [0, 8]<br/>class = Alto Lucro>, fillcolor="#399de5"] ;
290 -> 296 ;
297 [label=<gini = 0.0<br/>samples = 10<br/>value = [0, 17]<br/>class = Alto Lucro>, fillcolor="#399de5"] ;
273 -> 297 ;
298 [label=<Sales &le; 92.835<br/>gini = 0.491<br/>samples = 231<br/>value = [210, 160]<br/>class = Baixo Lucro>, fillcolor="#f9e1d0"] ;
272 -> 298 ;
299 [label=<Sales &le; 67.2<br/>gini = 0.117<br/>samples = 126<br/>value = [180, 12]<br/>class = Baixo Lucro>, fillcolor="#e78946"] ;
298 -> 299 ;
300 [label=<Sub-Category_Encoded &le; 11.0<br/>gini = 0.012<br/>samples = 102<br/>value = [158, 1]<br/>class = Baixo Lucro>, fillcolor="#e5823a"] ;
299 -> 300 ;
301 [label=<State_Encoded &le; 37.0<br/>gini = 0.024<br/>samples = 51<br/>value = [81, 1]<br/>class = Baixo Lucro>, fillcolor="#e5833b"] ;
300 -> 301 ;
302 [label=<gini = 0.0<br/>samples = 44<br/>value = [73, 0]<br/>class = Baixo Lucro>, fillcolor="#e58139"] ;
301 -> 302 ;
303 [label=<Sales &le; 53.55<br/>gini = 0.198<br/>samples = 7<br/>value = [8, 1]<br/>class = Baixo Lucro>, fillcolor="#e89152"] ;
301 -> 303 ;
304 [label=<gini = 0.0<br/>samples = 6<br/>value = [8, 0]<br/>class = Baixo Lucro>, fillcolor="#e58139"] ;
303 -> 304 ;
305 [label=<gini = 0.0<br/>samples = 1<br/>value = [0, 1]<br/>class = Alto Lucro>, fillcolor="#399de5"] ;
303 -> 305 ;
306 [label=<gini = 0.0<br/>samples = 51<br/>value = [77, 0]<br/>class = Baixo Lucro>, fillcolor="#e58139"] ;
300 -> 306 ;
307 [label=<Quantity &le; 6.5<br/>gini = 0.444<br/>samples = 24<br/>value = [22, 11]<br/>class = Baixo Lucro>, fillcolor="#f2c09c"] ;
299 -> 307 ;
308 [label=<Sales &le; 69.3<br/>gini = 0.278<br/>samples = 12<br/>value = [15, 3]<br/>class = Baixo Lucro>, fillcolor="#ea9a61"] ;
307 -> 308 ;
309 [label=<gini = 0.0<br/>samples = 1<br/>value = [0, 1]<br/>class = Alto Lucro>, fillcolor="#399de5"] ;
308 -> 309 ;
310 [label=<State_Encoded &le; 33.5<br/>gini = 0.208<br/>samples = 11<br/>value = [15, 2]<br/>class = Baixo Lucro>, fillcolor="#e89253"] ;
308 -> 310 ;
311 [label=<State_Encoded &le; 24.0<br/>gini = 0.346<br/>samples = 6<br/>value = [7, 2]<br/>class = Baixo Lucro>, fillcolor="#eca572"] ;
310 -> 311 ;
312 [label=<gini = 0.0<br/>samples = 4<br/>value = [6, 0]<br/>class = Baixo Lucro>, fillcolor="#e58139"] ;
311 -> 312 ;
313 [label=<Category_Encoded &le; 0.5<br/>gini = 0.444<br/>samples = 2<br/>value = [1, 2]<br/>class = Alto Lucro>, fillcolor="#9ccef2"] ;
311 -> 313 ;
314 [label=<gini = 0.0<br/>samples = 1<br/>value = [1, 0]<br/>class = Baixo Lucro>, fillcolor="#e58139"] ;
313 -> 314 ;
315 [label=<gini = 0.0<br/>samples = 1<br/>value = [0, 2]<br/>class = Alto Lucro>, fillcolor="#399de5"] ;
313 -> 315 ;
316 [label=<gini = 0.0<br/>samples = 5<br/>value = [8, 0]<br/>class = Baixo Lucro>, fillcolor="#e58139"] ;
310 -> 316 ;
317 [label=<Category_Encoded &le; 0.5<br/>gini = 0.498<br/>samples = 12<br/>value = [7, 8]<br/>class = Alto Lucro>, fillcolor="#e6f3fc"] ;
307 -> 317 ;
318 [label=<Sales &le; 76.625<br/>gini = 0.408<br/>samples = 5<br/>value = [5, 2]<br/>class = Baixo Lucro>, fillcolor="#efb388"] ;
317 -> 318 ;
319 [label=<gini = 0.0<br/>samples = 3<br/>value = [5, 0]<br/>class = Baixo Lucro>, fillcolor="#e58139"] ;
318 -> 319 ;
320 [label=<gini = 0.0<br/>samples = 2<br/>value = [0, 2]<br/>class = Alto Lucro>, fillcolor="#399de5"] ;
318 -> 320 ;
321 [label=<Sales &le; 79.41<br/>gini = 0.375<br/>samples = 7<br/>value = [2, 6]<br/>class = Alto Lucro>, fillcolor="#7bbeee"] ;
317 -> 321 ;
322 [label=<gini = 0.0<br/>samples = 2<br/>value = [0, 3]<br/>class = Alto Lucro>, fillcolor="#399de5"] ;
321 -> 322 ;
323 [label=<State_Encoded &le; 41.5<br/>gini = 0.48<br/>samples = 5<br/>value = [2, 3]<br/>class = Alto Lucro>, fillcolor="#bddef6"] ;
321 -> 323 ;
324 [label=<Region_Encoded &le; 2.5<br/>gini = 0.444<br/>samples = 3<br/>value = [2, 1]<br/>class = Baixo Lucro>, fillcolor="#f2c09c"] ;
323 -> 324 ;
325 [label=<gini = 0.0<br/>samples = 1<br/>value = [1, 0]<br/>class = Baixo Lucro>, fillcolor="#e58139"] ;
324 -> 325 ;
326 [label=<Sales &le; 85.735<br/>gini = 0.5<br/>samples = 2<br/>value = [1, 1]<br/>class = Baixo Lucro>, fillcolor="#ffffff"] ;
324 -> 326 ;
327 [label=<gini = 0.0<br/>samples = 1<br/>value = [1, 0]<br/>class = Baixo Lucro>, fillcolor="#e58139"] ;
326 -> 327 ;
328 [label=<gini = 0.0<br/>samples = 1<br/>value = [0, 1]<br/>class = Alto Lucro>, fillcolor="#399de5"] ;
326 -> 328 ;
329 [label=<gini = 0.0<br/>samples = 2<br/>value = [0, 2]<br/>class = Alto Lucro>, fillcolor="#399de5"] ;
323 -> 329 ;
330 [label=<Category_Encoded &le; 0.5<br/>gini = 0.28<br/>samples = 105<br/>value = [30, 148]<br/>class = Alto Lucro>, fillcolor="#61b1ea"] ;
298 -> 330 ;
331 [label=<Sales &le; 308.5<br/>gini = 0.131<br/>samples = 41<br/>value = [5, 66]<br/>class = Alto Lucro>, fillcolor="#48a4e7"] ;
330 -> 331 ;
332 [label=<Region_Encoded &le; 2.5<br/>gini = 0.234<br/>samples = 20<br/>value = [5, 32]<br/>class = Alto Lucro>, fillcolor="#58ace9"] ;
331 -> 332 ;
333 [label=<gini = 0.0<br/>samples = 9<br/>value = [0, 16]<br/>class = Alto Lucro>, fillcolor="#399de5"] ;
332 -> 333 ;
334 [label=<Quantity &le; 6.5<br/>gini = 0.363<br/>samples = 11<br/>value = [5, 16]<br/>class = Alto Lucro>, fillcolor="#77bced"] ;
332 -> 334 ;
335 [label=<gini = 0.0<br/>samples = 4<br/>value = [0, 8]<br/>class = Alto Lucro>, fillcolor="#399de5"] ;
334 -> 335 ;
336 [label=<Quantity &le; 7.5<br/>gini = 0.473<br/>samples = 7<br/>value = [5, 8]<br/>class = Alto Lucro>, fillcolor="#b5daf5"] ;
334 -> 336 ;
337 [label=<State_Encoded &le; 24.0<br/>gini = 0.5<br/>samples = 4<br/>value = [4, 4]<br/>class = Baixo Lucro>, fillcolor="#ffffff"] ;
336 -> 337 ;
338 [label=<Sales &le; 210.56<br/>gini = 0.444<br/>samples = 3<br/>value = [4, 2]<br/>class = Baixo Lucro>, fillcolor="#f2c09c"] ;
337 -> 338 ;
339 [label=<Sales &le; 118.055<br/>gini = 0.444<br/>samples = 2<br/>value = [1, 2]<br/>class = Alto Lucro>, fillcolor="#9ccef2"] ;
338 -> 339 ;
340 [label=<gini = 0.0<br/>samples = 1<br/>value = [1, 0]<br/>class = Baixo Lucro>, fillcolor="#e58139"] ;
339 -> 340 ;
341 [label=<gini = 0.0<br/>samples = 1<br/>value = [0, 2]<br/>class = Alto Lucro>, fillcolor="#399de5"] ;
339 -> 341 ;
342 [label=<gini = 0.0<br/>samples = 1<br/>value = [3, 0]<br/>class = Baixo Lucro>, fillcolor="#e58139"] ;
338 -> 342 ;
343 [label=<gini = 0.0<br/>samples = 1<br/>value = [0, 2]<br/>class = Alto Lucro>, fillcolor="#399de5"] ;
337 -> 343 ;
344 [label=<Sales &le; 184.44<br/>gini = 0.32<br/>samples = 3<br/>value = [1, 4]<br/>class = Alto Lucro>, fillcolor="#6ab6ec"] ;
336 -> 344 ;
345 [label=<Sales &le; 134.48<br/>gini = 0.5<br/>samples = 2<br/>value = [1, 1]<br/>class = Baixo Lucro>, fillcolor="#ffffff"] ;
344 -> 345 ;
346 [label=<gini = 0.0<br/>samples = 1<br/>value = [0, 1]<br/>class = Alto Lucro>, fillcolor="#399de5"] ;
345 -> 346 ;
347 [label=<gini = 0.0<br/>samples = 1<br/>value = [1, 0]<br/>class = Baixo Lucro>, fillcolor="#e58139"] ;
345 -> 347 ;
348 [label=<gini = 0.0<br/>samples = 1<br/>value = [0, 3]<br/>class = Alto Lucro>, fillcolor="#399de5"] ;
344 -> 348 ;
349 [label=<gini = 0.0<br/>samples = 21<br/>value = [0, 34]<br/>class = Alto Lucro>, fillcolor="#399de5"] ;
331 -> 349 ;
350 [label=<Quantity &le; 8.5<br/>gini = 0.358<br/>samples = 64<br/>value = [25, 82]<br/>class = Alto Lucro>, fillcolor="#75bbed"] ;
330 -> 350 ;
351 [label=<State_Encoded &le; 37.5<br/>gini = 0.421<br/>samples = 45<br/>value = [22, 51]<br/>class = Alto Lucro>, fillcolor="#8ec7f0"] ;
350 -> 351 ;
352 [label=<Sales &le; 109.535<br/>gini = 0.355<br/>samples = 33<br/>value = [12, 40]<br/>class = Alto Lucro>, fillcolor="#74baed"] ;
351 -> 352 ;
353 [label=<gini = 0.0<br/>samples = 1<br/>value = [2, 0]<br/>class = Baixo Lucro>, fillcolor="#e58139"] ;
352 -> 353 ;
354 [label=<Quantity &le; 7.5<br/>gini = 0.32<br/>samples = 32<br/>value = [10, 40]<br/>class = Alto Lucro>, fillcolor="#6ab6ec"] ;
352 -> 354 ;
355 [label=<Sales &le; 188.88<br/>gini = 0.308<br/>samples = 27<br/>value = [8, 34]<br/>class = Alto Lucro>, fillcolor="#68b4eb"] ;
354 -> 355 ;
356 [label=<gini = 0.0<br/>samples = 7<br/>value = [0, 13]<br/>class = Alto Lucro>, fillcolor="#399de5"] ;
355 -> 356 ;
357 [label=<Quantity &le; 6.5<br/>gini = 0.4<br/>samples = 20<br/>value = [8, 21]<br/>class = Alto Lucro>, fillcolor="#84c2ef"] ;
355 -> 357 ;
358 [label=<Sub-Category_Encoded &le; 13.0<br/>gini = 0.32<br/>samples = 12<br/>value = [3, 12]<br/>class = Alto Lucro>, fillcolor="#6ab6ec"] ;
357 -> 358 ;
359 [label=<gini = 0.0<br/>samples = 2<br/>value = [0, 2]<br/>class = Alto Lucro>, fillcolor="#399de5"] ;
358 -> 359 ;
360 [label=<Sales &le; 292.98<br/>gini = 0.355<br/>samples = 10<br/>value = [3, 10]<br/>class = Alto Lucro>, fillcolor="#74baed"] ;
358 -> 360 ;
361 [label=<Sales &le; 210.72<br/>gini = 0.375<br/>samples = 3<br/>value = [3, 1]<br/>class = Baixo Lucro>, fillcolor="#eeab7b"] ;
360 -> 361 ;
362 [label=<Sales &le; 200.22<br/>gini = 0.5<br/>samples = 2<br/>value = [1, 1]<br/>class = Baixo Lucro>, fillcolor="#ffffff"] ;
361 -> 362 ;
363 [label=<gini = 0.0<br/>samples = 1<br/>value = [1, 0]<br/>class = Baixo Lucro>, fillcolor="#e58139"] ;
362 -> 363 ;
364 [label=<gini = 0.0<br/>samples = 1<br/>value = [0, 1]<br/>class = Alto Lucro>, fillcolor="#399de5"] ;
362 -> 364 ;
365 [label=<gini = 0.0<br/>samples = 1<br/>value = [2, 0]<br/>class = Baixo Lucro>, fillcolor="#e58139"] ;
361 -> 365 ;
366 [label=<gini = 0.0<br/>samples = 7<br/>value = [0, 9]<br/>class = Alto Lucro>, fillcolor="#399de5"] ;
360 -> 366 ;
367 [label=<State_Encoded &le; 24.0<br/>gini = 0.459<br/>samples = 8<br/>value = [5, 9]<br/>class = Alto Lucro>, fillcolor="#a7d3f3"] ;
357 -> 367 ;
368 [label=<State_Encoded &le; 12.0<br/>gini = 0.473<br/>samples = 7<br/>value = [5, 8]<br/>class = Alto Lucro>, fillcolor="#b5daf5"] ;
367 -> 368 ;
369 [label=<Region_Encoded &le; 2.0<br/>gini = 0.444<br/>samples = 6<br/>value = [4, 8]<br/>class = Alto Lucro>, fillcolor="#9ccef2"] ;
368 -> 369 ;
370 [label=<gini = 0.0<br/>samples = 1<br/>value = [0, 2]<br/>class = Alto Lucro>, fillcolor="#399de5"] ;
369 -> 370 ;
371 [label=<Sales &le; 786.345<br/>gini = 0.48<br/>samples = 5<br/>value = [4, 6]<br/>class = Alto Lucro>, fillcolor="#bddef6"] ;
369 -> 371 ;
372 [label=<gini = 0.0<br/>samples = 2<br/>value = [0, 4]<br/>class = Alto Lucro>, fillcolor="#399de5"] ;
371 -> 372 ;
373 [label=<Sales &le; 1016.295<br/>gini = 0.444<br/>samples = 3<br/>value = [4, 2]<br/>class = Baixo Lucro>, fillcolor="#f2c09c"] ;
371 -> 373 ;
374 [label=<gini = 0.0<br/>samples = 2<br/>value = [4, 0]<br/>class = Baixo Lucro>, fillcolor="#e58139"] ;
373 -> 374 ;
375 [label=<gini = 0.0<br/>samples = 1<br/>value = [0, 2]<br/>class = Alto Lucro>, fillcolor="#399de5"] ;
373 -> 375 ;
376 [label=<gini = 0.0<br/>samples = 1<br/>value = [1, 0]<br/>class = Baixo Lucro>, fillcolor="#e58139"] ;
368 -> 376 ;
377 [label=<gini = 0.0<br/>samples = 1<br/>value = [0, 1]<br/>class = Alto Lucro>, fillcolor="#399de5"] ;
367 -> 377 ;
378 [label=<Sub-Category_Encoded &le; 13.0<br/>gini = 0.375<br/>samples = 5<br/>value = [2, 6]<br/>class = Alto Lucro>, fillcolor="#7bbeee"] ;
354 -> 378 ;
379 [label=<gini = 0.0<br/>samples = 2<br/>value = [0, 4]<br/>class = Alto Lucro>, fillcolor="#399de5"] ;
378 -> 379 ;
380 [label=<Sales &le; 787.36<br/>gini = 0.5<br/>samples = 3<br/>value = [2, 2]<br/>class = Baixo Lucro>, fillcolor="#ffffff"] ;
378 -> 380 ;
381 [label=<gini = 0.0<br/>samples = 2<br/>value = [0, 2]<br/>class = Alto Lucro>, fillcolor="#399de5"] ;
380 -> 381 ;
382 [label=<gini = 0.0<br/>samples = 1<br/>value = [2, 0]<br/>class = Baixo Lucro>, fillcolor="#e58139"] ;
380 -> 382 ;
383 [label=<Region_Encoded &le; 2.5<br/>gini = 0.499<br/>samples = 12<br/>value = [10, 11]<br/>class = Alto Lucro>, fillcolor="#edf6fd"] ;
351 -> 383 ;
384 [label=<Quantity &le; 7.5<br/>gini = 0.32<br/>samples = 6<br/>value = [8, 2]<br/>class = Baixo Lucro>, fillcolor="#eca06a"] ;
383 -> 384 ;
385 [label=<Sales &le; 147.74<br/>gini = 0.346<br/>samples = 5<br/>value = [7, 2]<br/>class = Baixo Lucro>, fillcolor="#eca572"] ;
384 -> 385 ;
386 [label=<gini = 0.0<br/>samples = 1<br/>value = [0, 1]<br/>class = Alto Lucro>, fillcolor="#399de5"] ;
385 -> 386 ;
387 [label=<Sub-Category_Encoded &le; 13.0<br/>gini = 0.219<br/>samples = 4<br/>value = [7, 1]<br/>class = Baixo Lucro>, fillcolor="#e99355"] ;
385 -> 387 ;
388 [label=<gini = 0.0<br/>samples = 1<br/>value = [0, 1]<br/>class = Alto Lucro>, fillcolor="#399de5"] ;
387 -> 388 ;
389 [label=<gini = 0.0<br/>samples = 3<br/>value = [7, 0]<br/>class = Baixo Lucro>, fillcolor="#e58139"] ;
387 -> 389 ;
390 [label=<gini = 0.0<br/>samples = 1<br/>value = [1, 0]<br/>class = Baixo Lucro>, fillcolor="#e58139"] ;
384 -> 390 ;
391 [label=<Quantity &le; 6.5<br/>gini = 0.298<br/>samples = 6<br/>value = [2, 9]<br/>class = Alto Lucro>, fillcolor="#65b3eb"] ;
383 -> 391 ;
392 [label=<Sales &le; 601.68<br/>gini = 0.444<br/>samples = 2<br/>value = [2, 1]<br/>class = Baixo Lucro>, fillcolor="#f2c09c"] ;
391 -> 392 ;
393 [label=<gini = 0.0<br/>samples = 1<br/>value = [0, 1]<br/>class = Alto Lucro>, fillcolor="#399de5"] ;
392 -> 393 ;
394 [label=<gini = 0.0<br/>samples = 1<br/>value = [2, 0]<br/>class = Baixo Lucro>, fillcolor="#e58139"] ;
392 -> 394 ;
395 [label=<gini = 0.0<br/>samples = 4<br/>value = [0, 8]<br/>class = Alto Lucro>, fillcolor="#399de5"] ;
391 -> 395 ;
396 [label=<Region_Encoded &le; 2.5<br/>gini = 0.161<br/>samples = 19<br/>value = [3, 31]<br/>class = Alto Lucro>, fillcolor="#4ca6e8"] ;
350 -> 396 ;
397 [label=<gini = 0.0<br/>samples = 12<br/>value = [0, 24]<br/>class = Alto Lucro>, fillcolor="#399de5"] ;
396 -> 397 ;
398 [label=<Quantity &le; 9.5<br/>gini = 0.42<br/>samples = 7<br/>value = [3, 7]<br/>class = Alto Lucro>, fillcolor="#8ec7f0"] ;
396 -> 398 ;
399 [label=<State_Encoded &le; 24.0<br/>gini = 0.444<br/>samples = 6<br/>value = [3, 6]<br/>class = Alto Lucro>, fillcolor="#9ccef2"] ;
398 -> 399 ;
400 [label=<Sub-Category_Encoded &le; 13.0<br/>gini = 0.278<br/>samples = 4<br/>value = [1, 5]<br/>class = Alto Lucro>, fillcolor="#61b1ea"] ;
399 -> 400 ;
401 [label=<gini = 0.0<br/>samples = 2<br/>value = [0, 4]<br/>class = Alto Lucro>, fillcolor="#399de5"] ;
400 -> 401 ;
402 [label=<Sales &le; 863.82<br/>gini = 0.5<br/>samples = 2<br/>value = [1, 1]<br/>class = Baixo Lucro>, fillcolor="#ffffff"] ;
400 -> 402 ;
403 [label=<gini = 0.0<br/>samples = 1<br/>value = [1, 0]<br/>class = Baixo Lucro>, fillcolor="#e58139"] ;
402 -> 403 ;
404 [label=<gini = 0.0<br/>samples = 1<br/>value = [0, 1]<br/>class = Alto Lucro>, fillcolor="#399de5"] ;
402 -> 404 ;
405 [label=<Sub-Category_Encoded &le; 13.0<br/>gini = 0.444<br/>samples = 2<br/>value = [2, 1]<br/>class = Baixo Lucro>, fillcolor="#f2c09c"] ;
399 -> 405 ;
406 [label=<gini = 0.0<br/>samples = 1<br/>value = [0, 1]<br/>class = Alto Lucro>, fillcolor="#399de5"] ;
405 -> 406 ;
407 [label=<gini = 0.0<br/>samples = 1<br/>value = [2, 0]<br/>class = Baixo Lucro>, fillcolor="#e58139"] ;
405 -> 407 ;
408 [label=<gini = 0.0<br/>samples = 1<br/>value = [0, 1]<br/>class = Alto Lucro>, fillcolor="#399de5"] ;
398 -> 408 ;
409 [label=<Sub-Category_Encoded &le; 13.0<br/>gini = 0.181<br/>samples = 2096<br/>value = [3005, 336]<br/>class = Baixo Lucro>, fillcolor="#e88f4f"] ;
1 -> 409 ;
410 [label=<Sales &le; 86.165<br/>gini = 0.196<br/>samples = 1778<br/>value = [2527, 313]<br/>class = Baixo Lucro>, fillcolor="#e89152"] ;
409 -> 410 ;
411 [label=<Discount &le; 0.25<br/>gini = 0.006<br/>samples = 1263<br/>value = [2010, 6]<br/>class = Baixo Lucro>, fillcolor="#e5813a"] ;
410 -> 411 ;
412 [label=<Sales &le; 78.288<br/>gini = 0.009<br/>samples = 850<br/>value = [1341, 6]<br/>class = Baixo Lucro>, fillcolor="#e5823a"] ;
411 -> 412 ;
413 [label=<gini = 0.0<br/>samples = 829<br/>value = [1313, 0]<br/>class = Baixo Lucro>, fillcolor="#e58139"] ;
412 -> 413 ;
414 [label=<State_Encoded &le; 43.0<br/>gini = 0.291<br/>samples = 21<br/>value = [28, 6]<br/>class = Baixo Lucro>, fillcolor="#eb9c63"] ;
412 -> 414 ;
415 [label=<State_Encoded &le; 16.5<br/>gini = 0.225<br/>samples = 19<br/>value = [27, 4]<br/>class = Baixo Lucro>, fillcolor="#e99456"] ;
414 -> 415 ;
416 [label=<gini = 0.0<br/>samples = 6<br/>value = [12, 0]<br/>class = Baixo Lucro>, fillcolor="#e58139"] ;
415 -> 416 ;
417 [label=<Quantity &le; 2.5<br/>gini = 0.332<br/>samples = 13<br/>value = [15, 4]<br/>class = Baixo Lucro>, fillcolor="#eca36e"] ;
415 -> 417 ;
418 [label=<State_Encoded &le; 34.5<br/>gini = 0.5<br/>samples = 6<br/>value = [3, 3]<br/>class = Baixo Lucro>, fillcolor="#ffffff"] ;
417 -> 418 ;
419 [label=<Sub-Category_Encoded &le; 10.5<br/>gini = 0.375<br/>samples = 4<br/>value = [1, 3]<br/>class = Alto Lucro>, fillcolor="#7bbeee"] ;
418 -> 419 ;
420 [label=<Quantity &le; 1.5<br/>gini = 0.5<br/>samples = 2<br/>value = [1, 1]<br/>class = Baixo Lucro>, fillcolor="#ffffff"] ;
419 -> 420 ;
421 [label=<gini = 0.0<br/>samples = 1<br/>value = [0, 1]<br/>class = Alto Lucro>, fillcolor="#399de5"] ;
420 -> 421 ;
422 [label=<gini = 0.0<br/>samples = 1<br/>value = [1, 0]<br/>class = Baixo Lucro>, fillcolor="#e58139"] ;
420 -> 422 ;
423 [label=<gini = 0.0<br/>samples = 2<br/>value = [0, 2]<br/>class = Alto Lucro>, fillcolor="#399de5"] ;
419 -> 423 ;
424 [label=<gini = 0.0<br/>samples = 2<br/>value = [2, 0]<br/>class = Baixo Lucro>, fillcolor="#e58139"] ;
418 -> 424 ;
425 [label=<Region_Encoded &le; 2.5<br/>gini = 0.142<br/>samples = 7<br/>value = [12, 1]<br/>class = Baixo Lucro>, fillcolor="#e78c49"] ;
417 -> 425 ;
426 [label=<gini = 0.0<br/>samples = 6<br/>value = [12, 0]<br/>class = Baixo Lucro>, fillcolor="#e58139"] ;
425 -> 426 ;
427 [label=<gini = 0.0<br/>samples = 1<br/>value = [0, 1]<br/>class = Alto Lucro>, fillcolor="#399de5"] ;
425 -> 427 ;
428 [label=<Sales &le; 83.88<br/>gini = 0.444<br/>samples = 2<br/>value = [1, 2]<br/>class = Alto Lucro>, fillcolor="#9ccef2"] ;
414 -> 428 ;
429 [label=<gini = 0.0<br/>samples = 1<br/>value = [1, 0]<br/>class = Baixo Lucro>, fillcolor="#e58139"] ;
428 -> 429 ;
430 [label=<gini = 0.0<br/>samples = 1<br/>value = [0, 2]<br/>class = Alto Lucro>, fillcolor="#399de5"] ;
428 -> 430 ;
431 [label=<gini = 0.0<br/>samples = 413<br/>value = [669, 0]<br/>class = Baixo Lucro>, fillcolor="#e58139"] ;
411 -> 431 ;
432 [label=<Discount &le; 0.25<br/>gini = 0.468<br/>samples = 515<br/>value = [517, 307]<br/>class = Baixo Lucro>, fillcolor="#f4ccaf"] ;
410 -> 432 ;
433 [label=<Sales &le; 583.96<br/>gini = 0.498<br/>samples = 364<br/>value = [273, 307]<br/>class = Alto Lucro>, fillcolor="#e9f4fc"] ;
432 -> 433 ;
434 [label=<Sales &le; 153.56<br/>gini = 0.496<br/>samples = 300<br/>value = [260, 219]<br/>class = Baixo Lucro>, fillcolor="#fbebe0"] ;
433 -> 434 ;
435 [label=<Sales &le; 130.288<br/>gini = 0.481<br/>samples = 106<br/>value = [67, 99]<br/>class = Alto Lucro>, fillcolor="#bfdff7"] ;
434 -> 435 ;
436 [label=<Sub-Category_Encoded &le; 9.5<br/>gini = 0.5<br/>samples = 79<br/>value = [61, 63]<br/>class = Alto Lucro>, fillcolor="#f9fcfe"] ;
435 -> 436 ;
437 [label=<Quantity &le; 2.5<br/>gini = 0.442<br/>samples = 57<br/>value = [61.0, 30.0]<br/>class = Baixo Lucro>, fillcolor="#f2bf9a"] ;
436 -> 437 ;
438 [label=<Category_Encoded &le; 0.5<br/>gini = 0.165<br/>samples = 19<br/>value = [30, 3]<br/>class = Baixo Lucro>, fillcolor="#e88e4d"] ;
437 -> 438 ;
439 [label=<gini = 0.0<br/>samples = 15<br/>value = [28, 0]<br/>class = Baixo Lucro>, fillcolor="#e58139"] ;
438 -> 439 ;
440 [label=<State_Encoded &le; 18.0<br/>gini = 0.48<br/>samples = 4<br/>value = [2, 3]<br/>class = Alto Lucro>, fillcolor="#bddef6"] ;
438 -> 440 ;
441 [label=<gini = 0.0<br/>samples = 2<br/>value = [0, 3]<br/>class = Alto Lucro>, fillcolor="#399de5"] ;
440 -> 441 ;
442 [label=<gini = 0.0<br/>samples = 2<br/>value = [2, 0]<br/>class = Baixo Lucro>, fillcolor="#e58139"] ;
440 -> 442 ;
443 [label=<Category_Encoded &le; 0.5<br/>gini = 0.498<br/>samples = 38<br/>value = [31.0, 27.0]<br/>class = Baixo Lucro>, fillcolor="#fcefe5"] ;
437 -> 443 ;
444 [label=<gini = 0.0<br/>samples = 11<br/>value = [18, 0]<br/>class = Baixo Lucro>, fillcolor="#e58139"] ;
443 -> 444 ;
445 [label=<Sub-Category_Encoded &le; 2.5<br/>gini = 0.439<br/>samples = 27<br/>value = [13, 27]<br/>class = Alto Lucro>, fillcolor="#98ccf2"] ;
443 -> 445 ;
446 [label=<gini = 0.0<br/>samples = 9<br/>value = [12, 0]<br/>class = Baixo Lucro>, fillcolor="#e58139"] ;
445 -> 446 ;
447 [label=<Sub-Category_Encoded &le; 5.0<br/>gini = 0.069<br/>samples = 18<br/>value = [1, 27]<br/>class = Alto Lucro>, fillcolor="#40a1e6"] ;
445 -> 447 ;
448 [label=<Quantity &le; 3.5<br/>gini = 0.077<br/>samples = 16<br/>value = [1, 24]<br/>class = Alto Lucro>, fillcolor="#41a1e6"] ;
447 -> 448 ;
449 [label=<State_Encoded &le; 43.5<br/>gini = 0.219<br/>samples = 6<br/>value = [1, 7]<br/>class = Alto Lucro>, fillcolor="#55abe9"] ;
448 -> 449 ;
450 [label=<gini = 0.0<br/>samples = 3<br/>value = [0, 4]<br/>class = Alto Lucro>, fillcolor="#399de5"] ;
449 -> 450 ;
451 [label=<Sales &le; 93.552<br/>gini = 0.375<br/>samples = 3<br/>value = [1, 3]<br/>class = Alto Lucro>, fillcolor="#7bbeee"] ;
449 -> 451 ;
452 [label=<Sales &le; 87.564<br/>gini = 0.5<br/>samples = 2<br/>value = [1, 1]<br/>class = Baixo Lucro>, fillcolor="#ffffff"] ;
451 -> 452 ;
453 [label=<gini = 0.0<br/>samples = 1<br/>value = [0, 1]<br/>class = Alto Lucro>, fillcolor="#399de5"] ;
452 -> 453 ;
454 [label=<gini = 0.0<br/>samples = 1<br/>value = [1, 0]<br/>class = Baixo Lucro>, fillcolor="#e58139"] ;
452 -> 454 ;
455 [label=<gini = 0.0<br/>samples = 1<br/>value = [0, 2]<br/>class = Alto Lucro>, fillcolor="#399de5"] ;
451 -> 455 ;
456 [label=<gini = 0.0<br/>samples = 10<br/>value = [0, 17]<br/>class = Alto Lucro>, fillcolor="#399de5"] ;
448 -> 456 ;
457 [label=<gini = 0.0<br/>samples = 2<br/>value = [0, 3]<br/>class = Alto Lucro>, fillcolor="#399de5"] ;
447 -> 457 ;
458 [label=<gini = 0.0<br/>samples = 22<br/>value = [0, 33]<br/>class = Alto Lucro>, fillcolor="#399de5"] ;
436 -> 458 ;
459 [label=<Category_Encoded &le; 0.5<br/>gini = 0.245<br/>samples = 27<br/>value = [6, 36]<br/>class = Alto Lucro>, fillcolor="#5aade9"] ;
435 -> 459 ;
460 [label=<State_Encoded &le; 20.5<br/>gini = 0.32<br/>samples = 5<br/>value = [4, 1]<br/>class = Baixo Lucro>, fillcolor="#eca06a"] ;
459 -> 460 ;
461 [label=<gini = 0.0<br/>samples = 3<br/>value = [3, 0]<br/>class = Baixo Lucro>, fillcolor="#e58139"] ;
460 -> 461 ;
462 [label=<Sales &le; 148.76<br/>gini = 0.5<br/>samples = 2<br/>value = [1, 1]<br/>class = Baixo Lucro>, fillcolor="#ffffff"] ;
460 -> 462 ;
463 [label=<gini = 0.0<br/>samples = 1<br/>value = [0, 1]<br/>class = Alto Lucro>, fillcolor="#399de5"] ;
462 -> 463 ;
464 [label=<gini = 0.0<br/>samples = 1<br/>value = [1, 0]<br/>class = Baixo Lucro>, fillcolor="#e58139"] ;
462 -> 464 ;
465 [label=<State_Encoded &le; 40.5<br/>gini = 0.102<br/>samples = 22<br/>value = [2, 35]<br/>class = Alto Lucro>, fillcolor="#44a3e6"] ;
459 -> 465 ;
466 [label=<gini = 0.0<br/>samples = 15<br/>value = [0, 26]<br/>class = Alto Lucro>, fillcolor="#399de5"] ;
465 -> 466 ;
467 [label=<State_Encoded &le; 43.0<br/>gini = 0.298<br/>samples = 7<br/>value = [2, 9]<br/>class = Alto Lucro>, fillcolor="#65b3eb"] ;
465 -> 467 ;
468 [label=<Quantity &le; 5.0<br/>gini = 0.48<br/>samples = 3<br/>value = [2, 3]<br/>class = Alto Lucro>, fillcolor="#bddef6"] ;
467 -> 468 ;
469 [label=<gini = 0.0<br/>samples = 2<br/>value = [0, 3]<br/>class = Alto Lucro>, fillcolor="#399de5"] ;
468 -> 469 ;
470 [label=<gini = 0.0<br/>samples = 1<br/>value = [2, 0]<br/>class = Baixo Lucro>, fillcolor="#e58139"] ;
468 -> 470 ;
471 [label=<gini = 0.0<br/>samples = 4<br/>value = [0, 6]<br/>class = Alto Lucro>, fillcolor="#399de5"] ;
467 -> 471 ;
472 [label=<Sub-Category_Encoded &le; 9.5<br/>gini = 0.473<br/>samples = 194<br/>value = [193, 120]<br/>class = Baixo Lucro>, fillcolor="#f5cfb4"] ;
434 -> 472 ;
473 [label=<Sub-Category_Encoded &le; 3.5<br/>gini = 0.408<br/>samples = 171<br/>value = [193, 77]<br/>class = Baixo Lucro>, fillcolor="#efb388"] ;
472 -> 473 ;
474 [label=<State_Encoded &le; 30.5<br/>gini = 0.444<br/>samples = 40<br/>value = [19, 38]<br/>class = Alto Lucro>, fillcolor="#9ccef2"] ;
473 -> 474 ;
475 [label=<Sub-Category_Encoded &le; 2.5<br/>gini = 0.271<br/>samples = 22<br/>value = [5, 26]<br/>class = Alto Lucro>, fillcolor="#5fb0ea"] ;
474 -> 475 ;
476 [label=<gini = 0.0<br/>samples = 5<br/>value = [5, 0]<br/>class = Baixo Lucro>, fillcolor="#e58139"] ;
475 -> 476 ;
477 [label=<gini = 0.0<br/>samples = 17<br/>value = [0, 26]<br/>class = Alto Lucro>, fillcolor="#399de5"] ;
475 -> 477 ;
478 [label=<Quantity &le; 2.5<br/>gini = 0.497<br/>samples = 18<br/>value = [14, 12]<br/>class = Baixo Lucro>, fillcolor="#fbede3"] ;
474 -> 478 ;
479 [label=<State_Encoded &le; 34.5<br/>gini = 0.245<br/>samples = 5<br/>value = [6, 1]<br/>class = Baixo Lucro>, fillcolor="#e9965a"] ;
478 -> 479 ;
480 [label=<gini = 0.0<br/>samples = 3<br/>value = [4, 0]<br/>class = Baixo Lucro>, fillcolor="#e58139"] ;
479 -> 480 ;
481 [label=<State_Encoded &le; 38.0<br/>gini = 0.444<br/>samples = 2<br/>value = [2, 1]<br/>class = Baixo Lucro>, fillcolor="#f2c09c"] ;
479 -> 481 ;
482 [label=<gini = 0.0<br/>samples = 1<br/>value = [0, 1]<br/>class = Alto Lucro>, fillcolor="#399de5"] ;
481 -> 482 ;
483 [label=<gini = 0.0<br/>samples = 1<br/>value = [2, 0]<br/>class = Baixo Lucro>, fillcolor="#e58139"] ;
481 -> 483 ;
484 [label=<Region_Encoded &le; 1.5<br/>gini = 0.488<br/>samples = 13<br/>value = [8, 11]<br/>class = Alto Lucro>, fillcolor="#c9e4f8"] ;
478 -> 484 ;
485 [label=<Sales &le; 390.976<br/>gini = 0.498<br/>samples = 10<br/>value = [8, 7]<br/>class = Baixo Lucro>, fillcolor="#fcefe6"] ;
484 -> 485 ;
486 [label=<Sub-Category_Encoded &le; 1.5<br/>gini = 0.397<br/>samples = 8<br/>value = [8, 3]<br/>class = Baixo Lucro>, fillcolor="#efb083"] ;
485 -> 486 ;
487 [label=<gini = 0.0<br/>samples = 5<br/>value = [6, 0]<br/>class = Baixo Lucro>, fillcolor="#e58139"] ;
486 -> 487 ;
488 [label=<Region_Encoded &le; 0.5<br/>gini = 0.48<br/>samples = 3<br/>value = [2, 3]<br/>class = Alto Lucro>, fillcolor="#bddef6"] ;
486 -> 488 ;
489 [label=<Quantity &le; 5.0<br/>gini = 0.375<br/>samples = 2<br/>value = [1, 3]<br/>class = Alto Lucro>, fillcolor="#7bbeee"] ;
488 -> 489 ;
490 [label=<gini = 0.0<br/>samples = 1<br/>value = [1, 0]<br/>class = Baixo Lucro>, fillcolor="#e58139"] ;
489 -> 490 ;
491 [label=<gini = 0.0<br/>samples = 1<br/>value = [0, 3]<br/>class = Alto Lucro>, fillcolor="#399de5"] ;
489 -> 491 ;
492 [label=<gini = 0.0<br/>samples = 1<br/>value = [1, 0]<br/>class = Baixo Lucro>, fillcolor="#e58139"] ;
488 -> 492 ;
493 [label=<gini = 0.0<br/>samples = 2<br/>value = [0, 4]<br/>class = Alto Lucro>, fillcolor="#399de5"] ;
485 -> 493 ;
494 [label=<gini = 0.0<br/>samples = 3<br/>value = [0, 4]<br/>class = Alto Lucro>, fillcolor="#399de5"] ;
484 -> 494 ;
495 [label=<Quantity &le; 6.5<br/>gini = 0.299<br/>samples = 131<br/>value = [174, 39]<br/>class = Baixo Lucro>, fillcolor="#eb9d65"] ;
473 -> 495 ;
496 [label=<Region_Encoded &le; 0.5<br/>gini = 0.242<br/>samples = 116<br/>value = [165, 27]<br/>class = Baixo Lucro>, fillcolor="#e99659"] ;
495 -> 496 ;
497 [label=<gini = 0.0<br/>samples = 1<br/>value = [0, 1]<br/>class = Alto Lucro>, fillcolor="#399de5"] ;
496 -> 497 ;
498 [label=<Category_Encoded &le; 0.5<br/>gini = 0.235<br/>samples = 115<br/>value = [165, 26]<br/>class = Baixo Lucro>, fillcolor="#e99558"] ;
496 -> 498 ;
499 [label=<Sales &le; 458.96<br/>gini = 0.222<br/>samples = 114<br/>value = [165, 24]<br/>class = Baixo Lucro>, fillcolor="#e99356"] ;
498 -> 499 ;
500 [label=<Sub-Category_Encoded &le; 7.0<br/>gini = 0.137<br/>samples = 93<br/>value = [150, 12]<br/>class = Baixo Lucro>, fillcolor="#e78b49"] ;
499 -> 500 ;
501 [label=<Quantity &le; 2.5<br/>gini = 0.119<br/>samples = 82<br/>value = [133, 9]<br/>class = Baixo Lucro>, fillcolor="#e78a46"] ;
500 -> 501 ;
502 [label=<State_Encoded &le; 2.0<br/>gini = 0.249<br/>samples = 35<br/>value = [47, 8]<br/>class = Baixo Lucro>, fillcolor="#e9965b"] ;
501 -> 502 ;
503 [label=<gini = 0.0<br/>samples = 1<br/>value = [0, 3]<br/>class = Alto Lucro>, fillcolor="#399de5"] ;
502 -> 503 ;
504 [label=<Discount &le; 0.175<br/>gini = 0.174<br/>samples = 34<br/>value = [47, 5]<br/>class = Baixo Lucro>, fillcolor="#e88e4e"] ;
502 -> 504 ;
505 [label=<gini = 0.0<br/>samples = 7<br/>value = [9, 0]<br/>class = Baixo Lucro>, fillcolor="#e58139"] ;
504 -> 505 ;
506 [label=<Sub-Category_Encoded &le; 4.5<br/>gini = 0.206<br/>samples = 27<br/>value = [38, 5]<br/>class = Baixo Lucro>, fillcolor="#e89253"] ;
504 -> 506 ;
507 [label=<Sales &le; 401.568<br/>gini = 0.26<br/>samples = 8<br/>value = [11, 2]<br/>class = Baixo Lucro>, fillcolor="#ea985d"] ;
506 -> 507 ;
508 [label=<Sales &le; 216.384<br/>gini = 0.153<br/>samples = 7<br/>value = [11, 1]<br/>class = Baixo Lucro>, fillcolor="#e78c4b"] ;
507 -> 508 ;
509 [label=<gini = 0.0<br/>samples = 3<br/>value = [7, 0]<br/>class = Baixo Lucro>, fillcolor="#e58139"] ;
508 -> 509 ;
510 [label=<Quantity &le; 1.5<br/>gini = 0.32<br/>samples = 4<br/>value = [4, 1]<br/>class = Baixo Lucro>, fillcolor="#eca06a"] ;
508 -> 510 ;
511 [label=<gini = 0.0<br/>samples = 1<br/>value = [0, 1]<br/>class = Alto Lucro>, fillcolor="#399de5"] ;
510 -> 511 ;
512 [label=<gini = 0.0<br/>samples = 3<br/>value = [4, 0]<br/>class = Baixo Lucro>, fillcolor="#e58139"] ;
510 -> 512 ;
513 [label=<gini = 0.0<br/>samples = 1<br/>value = [0, 1]<br/>class = Alto Lucro>, fillcolor="#399de5"] ;
507 -> 513 ;
514 [label=<Quantity &le; 1.5<br/>gini = 0.18<br/>samples = 19<br/>value = [27, 3]<br/>class = Baixo Lucro>, fillcolor="#e88f4f"] ;
506 -> 514 ;
515 [label=<gini = 0.0<br/>samples = 5<br/>value = [10, 0]<br/>class = Baixo Lucro>, fillcolor="#e58139"] ;
514 -> 515 ;
516 [label=<State_Encoded &le; 42.5<br/>gini = 0.255<br/>samples = 14<br/>value = [17, 3]<br/>class = Baixo Lucro>, fillcolor="#ea975c"] ;
514 -> 516 ;
517 [label=<Sales &le; 335.248<br/>gini = 0.291<br/>samples = 12<br/>value = [14, 3]<br/>class = Baixo Lucro>, fillcolor="#eb9c63"] ;
516 -> 517 ;
518 [label=<gini = 0.0<br/>samples = 9<br/>value = [13, 0]<br/>class = Baixo Lucro>, fillcolor="#e58139"] ;
517 -> 518 ;
519 [label=<Region_Encoded &le; 2.5<br/>gini = 0.375<br/>samples = 3<br/>value = [1, 3]<br/>class = Alto Lucro>, fillcolor="#7bbeee"] ;
517 -> 519 ;
520 [label=<gini = 0.0<br/>samples = 1<br/>value = [0, 1]<br/>class = Alto Lucro>, fillcolor="#399de5"] ;
519 -> 520 ;
521 [label=<Sales &le; 365.184<br/>gini = 0.444<br/>samples = 2<br/>value = [1, 2]<br/>class = Alto Lucro>, fillcolor="#9ccef2"] ;
519 -> 521 ;
522 [label=<gini = 0.0<br/>samples = 1<br/>value = [0, 2]<br/>class = Alto Lucro>, fillcolor="#399de5"] ;
521 -> 522 ;
523 [label=<gini = 0.0<br/>samples = 1<br/>value = [1, 0]<br/>class = Baixo Lucro>, fillcolor="#e58139"] ;
521 -> 523 ;
524 [label=<gini = 0.0<br/>samples = 2<br/>value = [3, 0]<br/>class = Baixo Lucro>, fillcolor="#e58139"] ;
516 -> 524 ;
525 [label=<Sales &le; 387.92<br/>gini = 0.023<br/>samples = 47<br/>value = [86, 1]<br/>class = Baixo Lucro>, fillcolor="#e5823b"] ;
501 -> 525 ;
526 [label=<gini = 0.0<br/>samples = 38<br/>value = [70, 0]<br/>class = Baixo Lucro>, fillcolor="#e58139"] ;
525 -> 526 ;
527 [label=<Quantity &le; 5.5<br/>gini = 0.111<br/>samples = 9<br/>value = [16, 1]<br/>class = Baixo Lucro>, fillcolor="#e78945"] ;
525 -> 527 ;
528 [label=<gini = 0.0<br/>samples = 7<br/>value = [13, 0]<br/>class = Baixo Lucro>, fillcolor="#e58139"] ;
527 -> 528 ;
529 [label=<State_Encoded &le; 37.5<br/>gini = 0.375<br/>samples = 2<br/>value = [3, 1]<br/>class = Baixo Lucro>, fillcolor="#eeab7b"] ;
527 -> 529 ;
530 [label=<gini = 0.0<br/>samples = 1<br/>value = [3, 0]<br/>class = Baixo Lucro>, fillcolor="#e58139"] ;
529 -> 530 ;
531 [label=<gini = 0.0<br/>samples = 1<br/>value = [0, 1]<br/>class = Alto Lucro>, fillcolor="#399de5"] ;
529 -> 531 ;
532 [label=<Sales &le; 380.812<br/>gini = 0.255<br/>samples = 11<br/>value = [17, 3]<br/>class = Baixo Lucro>, fillcolor="#ea975c"] ;
500 -> 532 ;
533 [label=<State_Encoded &le; 2.5<br/>gini = 0.188<br/>samples = 10<br/>value = [17, 2]<br/>class = Baixo Lucro>, fillcolor="#e89050"] ;
532 -> 533 ;
534 [label=<Sales &le; 187.84<br/>gini = 0.444<br/>samples = 3<br/>value = [4, 2]<br/>class = Baixo Lucro>, fillcolor="#f2c09c"] ;
533 -> 534 ;
535 [label=<gini = 0.0<br/>samples = 1<br/>value = [2, 0]<br/>class = Baixo Lucro>, fillcolor="#e58139"] ;
534 -> 535 ;
536 [label=<Sales &le; 285.408<br/>gini = 0.5<br/>samples = 2<br/>value = [2, 2]<br/>class = Baixo Lucro>, fillcolor="#ffffff"] ;
534 -> 536 ;
537 [label=<gini = 0.0<br/>samples = 1<br/>value = [0, 2]<br/>class = Alto Lucro>, fillcolor="#399de5"] ;
536 -> 537 ;
538 [label=<gini = 0.0<br/>samples = 1<br/>value = [2, 0]<br/>class = Baixo Lucro>, fillcolor="#e58139"] ;
536 -> 538 ;
539 [label=<gini = 0.0<br/>samples = 7<br/>value = [13, 0]<br/>class = Baixo Lucro>, fillcolor="#e58139"] ;
533 -> 539 ;
540 [label=<gini = 0.0<br/>samples = 1<br/>value = [0, 1]<br/>class = Alto Lucro>, fillcolor="#399de5"] ;
532 -> 540 ;
541 [label=<Sales &le; 483.92<br/>gini = 0.494<br/>samples = 21<br/>value = [15, 12]<br/>class = Baixo Lucro>, fillcolor="#fae6d7"] ;
499 -> 541 ;
542 [label=<gini = 0.0<br/>samples = 5<br/>value = [0, 7]<br/>class = Alto Lucro>, fillcolor="#399de5"] ;
541 -> 542 ;
543 [label=<Region_Encoded &le; 1.5<br/>gini = 0.375<br/>samples = 16<br/>value = [15, 5]<br/>class = Baixo Lucro>, fillcolor="#eeab7b"] ;
541 -> 543 ;
544 [label=<gini = 0.0<br/>samples = 4<br/>value = [5, 0]<br/>class = Baixo Lucro>, fillcolor="#e58139"] ;
543 -> 544 ;
545 [label=<Quantity &le; 3.5<br/>gini = 0.444<br/>samples = 12<br/>value = [10, 5]<br/>class = Baixo Lucro>, fillcolor="#f2c09c"] ;
543 -> 545 ;
546 [label=<Sales &le; 517.946<br/>gini = 0.278<br/>samples = 4<br/>value = [1, 5]<br/>class = Alto Lucro>, fillcolor="#61b1ea"] ;
545 -> 546 ;
547 [label=<gini = 0.0<br/>samples = 1<br/>value = [1, 0]<br/>class = Baixo Lucro>, fillcolor="#e58139"] ;
546 -> 547 ;
548 [label=<gini = 0.0<br/>samples = 3<br/>value = [0, 5]<br/>class = Alto Lucro>, fillcolor="#399de5"] ;
546 -> 548 ;
549 [label=<gini = 0.0<br/>samples = 8<br/>value = [9, 0]<br/>class = Baixo Lucro>, fillcolor="#e58139"] ;
545 -> 549 ;
550 [label=<gini = 0.0<br/>samples = 1<br/>value = [0, 2]<br/>class = Alto Lucro>, fillcolor="#399de5"] ;
498 -> 550 ;
551 [label=<State_Encoded &le; 3.5<br/>gini = 0.49<br/>samples = 15<br/>value = [9, 12]<br/>class = Alto Lucro>, fillcolor="#cee6f8"] ;
495 -> 551 ;
552 [label=<Sub-Category_Encoded &le; 4.5<br/>gini = 0.278<br/>samples = 5<br/>value = [5, 1]<br/>class = Baixo Lucro>, fillcolor="#ea9a61"] ;
551 -> 552 ;
553 [label=<Sales &le; 413.822<br/>gini = 0.5<br/>samples = 2<br/>value = [1, 1]<br/>class = Baixo Lucro>, fillcolor="#ffffff"] ;
552 -> 553 ;
554 [label=<gini = 0.0<br/>samples = 1<br/>value = [1, 0]<br/>class = Baixo Lucro>, fillcolor="#e58139"] ;
553 -> 554 ;
555 [label=<gini = 0.0<br/>samples = 1<br/>value = [0, 1]<br/>class = Alto Lucro>, fillcolor="#399de5"] ;
553 -> 555 ;
556 [label=<gini = 0.0<br/>samples = 3<br/>value = [4, 0]<br/>class = Baixo Lucro>, fillcolor="#e58139"] ;
552 -> 556 ;
557 [label=<Quantity &le; 8.5<br/>gini = 0.391<br/>samples = 10<br/>value = [4, 11]<br/>class = Alto Lucro>, fillcolor="#81c1ee"] ;
551 -> 557 ;
558 [label=<State_Encoded &le; 35.5<br/>gini = 0.355<br/>samples = 8<br/>value = [3, 10]<br/>class = Alto Lucro>, fillcolor="#74baed"] ;
557 -> 558 ;
559 [label=<gini = 0.0<br/>samples = 4<br/>value = [0, 8]<br/>class = Alto Lucro>, fillcolor="#399de5"] ;
558 -> 559 ;
560 [label=<State_Encoded &le; 42.5<br/>gini = 0.48<br/>samples = 4<br/>value = [3, 2]<br/>class = Baixo Lucro>, fillcolor="#f6d5bd"] ;
558 -> 560 ;
561 [label=<Sales &le; 453.092<br/>gini = 0.5<br/>samples = 3<br/>value = [2, 2]<br/>class = Baixo Lucro>, fillcolor="#ffffff"] ;
560 -> 561 ;
562 [label=<gini = 0.0<br/>samples = 2<br/>value = [0, 2]<br/>class = Alto Lucro>, fillcolor="#399de5"] ;
561 -> 562 ;
563 [label=<gini = 0.0<br/>samples = 1<br/>value = [2, 0]<br/>class = Baixo Lucro>, fillcolor="#e58139"] ;
561 -> 563 ;
564 [label=<gini = 0.0<br/>samples = 1<br/>value = [1, 0]<br/>class = Baixo Lucro>, fillcolor="#e58139"] ;
560 -> 564 ;
565 [label=<Sales &le; 234.972<br/>gini = 0.5<br/>samples = 2<br/>value = [1, 1]<br/>class = Baixo Lucro>, fillcolor="#ffffff"] ;
557 -> 565 ;
566 [label=<gini = 0.0<br/>samples = 1<br/>value = [1, 0]<br/>class = Baixo Lucro>, fillcolor="#e58139"] ;
565 -> 566 ;
567 [label=<gini = 0.0<br/>samples = 1<br/>value = [0, 1]<br/>class = Alto Lucro>, fillcolor="#399de5"] ;
565 -> 567 ;
568 [label=<gini = 0.0<br/>samples = 23<br/>value = [0, 43]<br/>class = Alto Lucro>, fillcolor="#399de5"] ;
472 -> 568 ;
569 [label=<Category_Encoded &le; 0.5<br/>gini = 0.224<br/>samples = 64<br/>value = [13, 88]<br/>class = Alto Lucro>, fillcolor="#56abe9"] ;
433 -> 569 ;
570 [label=<Discount &le; 0.175<br/>gini = 0.309<br/>samples = 43<br/>value = [13, 55]<br/>class = Alto Lucro>, fillcolor="#68b4eb"] ;
569 -> 570 ;
571 [label=<Quantity &le; 4.5<br/>gini = 0.48<br/>samples = 3<br/>value = [3, 2]<br/>class = Baixo Lucro>, fillcolor="#f6d5bd"] ;
570 -> 571 ;
572 [label=<gini = 0.0<br/>samples = 1<br/>value = [2, 0]<br/>class = Baixo Lucro>, fillcolor="#e58139"] ;
571 -> 572 ;
573 [label=<Sales &le; 608.081<br/>gini = 0.444<br/>samples = 2<br/>value = [1, 2]<br/>class = Alto Lucro>, fillcolor="#9ccef2"] ;
571 -> 573 ;
574 [label=<gini = 0.0<br/>samples = 1<br/>value = [0, 2]<br/>class = Alto Lucro>, fillcolor="#399de5"] ;
573 -> 574 ;
575 [label=<gini = 0.0<br/>samples = 1<br/>value = [1, 0]<br/>class = Baixo Lucro>, fillcolor="#e58139"] ;
573 -> 575 ;
576 [label=<Sales &le; 602.728<br/>gini = 0.267<br/>samples = 40<br/>value = [10, 53]<br/>class = Alto Lucro>, fillcolor="#5eafea"] ;
570 -> 576 ;
577 [label=<gini = 0.0<br/>samples = 1<br/>value = [1, 0]<br/>class = Baixo Lucro>, fillcolor="#e58139"] ;
576 -> 577 ;
578 [label=<State_Encoded &le; 27.5<br/>gini = 0.248<br/>samples = 39<br/>value = [9, 53]<br/>class = Alto Lucro>, fillcolor="#5baee9"] ;
576 -> 578 ;
579 [label=<Quantity &le; 10.5<br/>gini = 0.32<br/>samples = 24<br/>value = [7, 28]<br/>class = Alto Lucro>, fillcolor="#6ab6ec"] ;
578 -> 579 ;
580 [label=<Sales &le; 2203.528<br/>gini = 0.334<br/>samples = 23<br/>value = [7, 26]<br/>class = Alto Lucro>, fillcolor="#6eb7ec"] ;
579 -> 580 ;
581 [label=<Sales &le; 907.136<br/>gini = 0.305<br/>samples = 22<br/>value = [6, 26]<br/>class = Alto Lucro>, fillcolor="#67b4eb"] ;
580 -> 581 ;
582 [label=<Sub-Category_Encoded &le; 7.0<br/>gini = 0.459<br/>samples = 10<br/>value = [5, 9]<br/>class = Alto Lucro>, fillcolor="#a7d3f3"] ;
581 -> 582 ;
583 [label=<Quantity &le; 3.5<br/>gini = 0.496<br/>samples = 9<br/>value = [5, 6]<br/>class = Alto Lucro>, fillcolor="#deeffb"] ;
582 -> 583 ;
584 [label=<Sales &le; 687.252<br/>gini = 0.408<br/>samples = 6<br/>value = [2, 5]<br/>class = Alto Lucro>, fillcolor="#88c4ef"] ;
583 -> 584 ;
585 [label=<gini = 0.0<br/>samples = 1<br/>value = [1, 0]<br/>class = Baixo Lucro>, fillcolor="#e58139"] ;
584 -> 585 ;
586 [label=<Sales &le; 848.364<br/>gini = 0.278<br/>samples = 5<br/>value = [1, 5]<br/>class = Alto Lucro>, fillcolor="#61b1ea"] ;
584 -> 586 ;
587 [label=<gini = 0.0<br/>samples = 4<br/>value = [0, 5]<br/>class = Alto Lucro>, fillcolor="#399de5"] ;
586 -> 587 ;
588 [label=<gini = 0.0<br/>samples = 1<br/>value = [1, 0]<br/>class = Baixo Lucro>, fillcolor="#e58139"] ;
586 -> 588 ;
589 [label=<Sales &le; 884.684<br/>gini = 0.375<br/>samples = 3<br/>value = [3, 1]<br/>class = Baixo Lucro>, fillcolor="#eeab7b"] ;
583 -> 589 ;
590 [label=<gini = 0.0<br/>samples = 1<br/>value = [0, 1]<br/>class = Alto Lucro>, fillcolor="#399de5"] ;
589 -> 590 ;
591 [label=<gini = 0.0<br/>samples = 2<br/>value = [3, 0]<br/>class = Baixo Lucro>, fillcolor="#e58139"] ;
589 -> 591 ;
592 [label=<gini = 0.0<br/>samples = 1<br/>value = [0, 3]<br/>class = Alto Lucro>, fillcolor="#399de5"] ;
582 -> 592 ;
593 [label=<Region_Encoded &le; 2.5<br/>gini = 0.105<br/>samples = 12<br/>value = [1, 17]<br/>class = Alto Lucro>, fillcolor="#45a3e7"] ;
581 -> 593 ;
594 [label=<gini = 0.0<br/>samples = 1<br/>value = [0, 1]<br/>class = Alto Lucro>, fillcolor="#399de5"] ;
593 -> 594 ;
595 [label=<Quantity &le; 5.5<br/>gini = 0.111<br/>samples = 11<br/>value = [1, 16]<br/>class = Alto Lucro>, fillcolor="#45a3e7"] ;
593 -> 595 ;
596 [label=<gini = 0.0<br/>samples = 6<br/>value = [0, 10]<br/>class = Alto Lucro>, fillcolor="#399de5"] ;
595 -> 596 ;
597 [label=<Sales &le; 1337.232<br/>gini = 0.245<br/>samples = 5<br/>value = [1, 6]<br/>class = Alto Lucro>, fillcolor="#5aade9"] ;
595 -> 597 ;
598 [label=<gini = 0.0<br/>samples = 4<br/>value = [0, 6]<br/>class = Alto Lucro>, fillcolor="#399de5"] ;
597 -> 598 ;
599 [label=<gini = 0.0<br/>samples = 1<br/>value = [1, 0]<br/>class = Baixo Lucro>, fillcolor="#e58139"] ;
597 -> 599 ;
600 [label=<gini = 0.0<br/>samples = 1<br/>value = [1, 0]<br/>class = Baixo Lucro>, fillcolor="#e58139"] ;
580 -> 600 ;
601 [label=<gini = 0.0<br/>samples = 1<br/>value = [0, 2]<br/>class = Alto Lucro>, fillcolor="#399de5"] ;
579 -> 601 ;
602 [label=<Sales &le; 857.888<br/>gini = 0.137<br/>samples = 15<br/>value = [2, 25]<br/>class = Alto Lucro>, fillcolor="#49a5e7"] ;
578 -> 602 ;
603 [label=<Sub-Category_Encoded &le; 4.5<br/>gini = 0.245<br/>samples = 7<br/>value = [2, 12]<br/>class = Alto Lucro>, fillcolor="#5aade9"] ;
602 -> 603 ;
604 [label=<gini = 0.0<br/>samples = 2<br/>value = [0, 4]<br/>class = Alto Lucro>, fillcolor="#399de5"] ;
603 -> 604 ;
605 [label=<State_Encoded &le; 42.5<br/>gini = 0.32<br/>samples = 5<br/>value = [2, 8]<br/>class = Alto Lucro>, fillcolor="#6ab6ec"] ;
603 -> 605 ;
606 [label=<Quantity &le; 9.5<br/>gini = 0.48<br/>samples = 3<br/>value = [2, 3]<br/>class = Alto Lucro>, fillcolor="#bddef6"] ;
605 -> 606 ;
607 [label=<Quantity &le; 5.5<br/>gini = 0.444<br/>samples = 2<br/>value = [2, 1]<br/>class = Baixo Lucro>, fillcolor="#f2c09c"] ;
606 -> 607 ;
608 [label=<gini = 0.0<br/>samples = 1<br/>value = [0, 1]<br/>class = Alto Lucro>, fillcolor="#399de5"] ;
607 -> 608 ;
609 [label=<gini = 0.0<br/>samples = 1<br/>value = [2, 0]<br/>class = Baixo Lucro>, fillcolor="#e58139"] ;
607 -> 609 ;
610 [label=<gini = 0.0<br/>samples = 1<br/>value = [0, 2]<br/>class = Alto Lucro>, fillcolor="#399de5"] ;
606 -> 610 ;
611 [label=<gini = 0.0<br/>samples = 2<br/>value = [0, 5]<br/>class = Alto Lucro>, fillcolor="#399de5"] ;
605 -> 611 ;
612 [label=<gini = 0.0<br/>samples = 8<br/>value = [0, 13]<br/>class = Alto Lucro>, fillcolor="#399de5"] ;
602 -> 612 ;
613 [label=<gini = 0.0<br/>samples = 21<br/>value = [0, 33]<br/>class = Alto Lucro>, fillcolor="#399de5"] ;
569 -> 613 ;
614 [label=<gini = 0.0<br/>samples = 151<br/>value = [244, 0]<br/>class = Baixo Lucro>, fillcolor="#e58139"] ;
432 -> 614 ;
615 [label=<Quantity &le; 5.5<br/>gini = 0.088<br/>samples = 318<br/>value = [478, 23]<br/>class = Baixo Lucro>, fillcolor="#e68743"] ;
409 -> 615 ;
616 [label=<Discount &le; 0.25<br/>gini = 0.047<br/>samples = 262<br/>value = [402, 10]<br/>class = Baixo Lucro>, fillcolor="#e6843e"] ;
615 -> 616 ;
617 [label=<Sales &le; 983.768<br/>gini = 0.064<br/>samples = 191<br/>value = [291, 10]<br/>class = Baixo Lucro>, fillcolor="#e68540"] ;
616 -> 617 ;
618 [label=<Sales &le; 280.74<br/>gini = 0.04<br/>samples = 187<br/>value = [290, 6]<br/>class = Baixo Lucro>, fillcolor="#e6843d"] ;
617 -> 618 ;
619 [label=<gini = 0.0<br/>samples = 144<br/>value = [230, 0]<br/>class = Baixo Lucro>, fillcolor="#e58139"] ;
618 -> 619 ;
620 [label=<Sales &le; 285.948<br/>gini = 0.165<br/>samples = 43<br/>value = [60, 6]<br/>class = Baixo Lucro>, fillcolor="#e88e4d"] ;
618 -> 620 ;
621 [label=<gini = 0.0<br/>samples = 1<br/>value = [0, 1]<br/>class = Alto Lucro>, fillcolor="#399de5"] ;
620 -> 621 ;
622 [label=<State_Encoded &le; 6.0<br/>gini = 0.142<br/>samples = 42<br/>value = [60, 5]<br/>class = Baixo Lucro>, fillcolor="#e78c49"] ;
620 -> 622 ;
623 [label=<gini = 0.0<br/>samples = 16<br/>value = [21, 0]<br/>class = Baixo Lucro>, fillcolor="#e58139"] ;
622 -> 623 ;
624 [label=<Quantity &le; 1.5<br/>gini = 0.201<br/>samples = 26<br/>value = [39, 5]<br/>class = Baixo Lucro>, fillcolor="#e89152"] ;
622 -> 624 ;
625 [label=<gini = 0.0<br/>samples = 1<br/>value = [0, 1]<br/>class = Alto Lucro>, fillcolor="#399de5"] ;
624 -> 625 ;
626 [label=<State_Encoded &le; 9.5<br/>gini = 0.169<br/>samples = 25<br/>value = [39, 4]<br/>class = Baixo Lucro>, fillcolor="#e88e4d"] ;
624 -> 626 ;
627 [label=<Quantity &le; 4.0<br/>gini = 0.444<br/>samples = 2<br/>value = [1, 2]<br/>class = Alto Lucro>, fillcolor="#9ccef2"] ;
626 -> 627 ;
628 [label=<gini = 0.0<br/>samples = 1<br/>value = [0, 2]<br/>class = Alto Lucro>, fillcolor="#399de5"] ;
627 -> 628 ;
629 [label=<gini = 0.0<br/>samples = 1<br/>value = [1, 0]<br/>class = Baixo Lucro>, fillcolor="#e58139"] ;
627 -> 629 ;
630 [label=<State_Encoded &le; 40.5<br/>gini = 0.095<br/>samples = 23<br/>value = [38, 2]<br/>class = Baixo Lucro>, fillcolor="#e68843"] ;
626 -> 630 ;
631 [label=<gini = 0.0<br/>samples = 18<br/>value = [30, 0]<br/>class = Baixo Lucro>, fillcolor="#e58139"] ;
630 -> 631 ;
632 [label=<Quantity &le; 4.0<br/>gini = 0.32<br/>samples = 5<br/>value = [8, 2]<br/>class = Baixo Lucro>, fillcolor="#eca06a"] ;
630 -> 632 ;
633 [label=<Sales &le; 357.504<br/>gini = 0.408<br/>samples = 3<br/>value = [5, 2]<br/>class = Baixo Lucro>, fillcolor="#efb388"] ;
632 -> 633 ;
634 [label=<Sales &le; 328.476<br/>gini = 0.5<br/>samples = 2<br/>value = [2, 2]<br/>class = Baixo Lucro>, fillcolor="#ffffff"] ;
633 -> 634 ;
635 [label=<gini = 0.0<br/>samples = 1<br/>value = [2, 0]<br/>class = Baixo Lucro>, fillcolor="#e58139"] ;
634 -> 635 ;
636 [label=<gini = 0.0<br/>samples = 1<br/>value = [0, 2]<br/>class = Alto Lucro>, fillcolor="#399de5"] ;
634 -> 636 ;
637 [label=<gini = 0.0<br/>samples = 1<br/>value = [3, 0]<br/>class = Baixo Lucro>, fillcolor="#e58139"] ;
633 -> 637 ;
638 [label=<gini = 0.0<br/>samples = 2<br/>value = [3, 0]<br/>class = Baixo Lucro>, fillcolor="#e58139"] ;
632 -> 638 ;
639 [label=<Sub-Category_Encoded &le; 15.0<br/>gini = 0.32<br/>samples = 4<br/>value = [1, 4]<br/>class = Alto Lucro>, fillcolor="#6ab6ec"] ;
617 -> 639 ;
640 [label=<gini = 0.0<br/>samples = 2<br/>value = [0, 2]<br/>class = Alto Lucro>, fillcolor="#399de5"] ;
639 -> 640 ;
641 [label=<Sales &le; 1187.26<br/>gini = 0.444<br/>samples = 2<br/>value = [1, 2]<br/>class = Alto Lucro>, fillcolor="#9ccef2"] ;
639 -> 641 ;
642 [label=<gini = 0.0<br/>samples = 1<br/>value = [0, 2]<br/>class = Alto Lucro>, fillcolor="#399de5"] ;
641 -> 642 ;
643 [label=<gini = 0.0<br/>samples = 1<br/>value = [1, 0]<br/>class = Baixo Lucro>, fillcolor="#e58139"] ;
641 -> 643 ;
644 [label=<gini = 0.0<br/>samples = 71<br/>value = [111, 0]<br/>class = Baixo Lucro>, fillcolor="#e58139"] ;
616 -> 644 ;
645 [label=<Discount &le; 0.25<br/>gini = 0.249<br/>samples = 56<br/>value = [76, 13]<br/>class = Baixo Lucro>, fillcolor="#e9975b"] ;
615 -> 645 ;
646 [label=<Sub-Category_Encoded &le; 15.5<br/>gini = 0.328<br/>samples = 40<br/>value = [50, 13]<br/>class = Baixo Lucro>, fillcolor="#eca26c"] ;
645 -> 646 ;
647 [label=<Region_Encoded &le; 2.5<br/>gini = 0.254<br/>samples = 30<br/>value = [40, 7]<br/>class = Baixo Lucro>, fillcolor="#ea975c"] ;
646 -> 647 ;
648 [label=<Region_Encoded &le; 0.5<br/>gini = 0.327<br/>samples = 22<br/>value = [27, 7]<br/>class = Baixo Lucro>, fillcolor="#eca26c"] ;
647 -> 648 ;
649 [label=<Sales &le; 790.368<br/>gini = 0.208<br/>samples = 11<br/>value = [15, 2]<br/>class = Baixo Lucro>, fillcolor="#e89253"] ;
648 -> 649 ;
650 [label=<gini = 0.0<br/>samples = 9<br/>value = [15, 0]<br/>class = Baixo Lucro>, fillcolor="#e58139"] ;
649 -> 650 ;
651 [label=<gini = 0.0<br/>samples = 2<br/>value = [0, 2]<br/>class = Alto Lucro>, fillcolor="#399de5"] ;
649 -> 651 ;
652 [label=<Quantity &le; 8.5<br/>gini = 0.415<br/>samples = 11<br/>value = [12, 5]<br/>class = Baixo Lucro>, fillcolor="#f0b58b"] ;
648 -> 652 ;
653 [label=<Region_Encoded &le; 1.5<br/>gini = 0.43<br/>samples = 10<br/>value = [11, 5]<br/>class = Baixo Lucro>, fillcolor="#f1ba93"] ;
652 -> 653 ;
654 [label=<Quantity &le; 6.5<br/>gini = 0.426<br/>samples = 7<br/>value = [9, 4]<br/>class = Baixo Lucro>, fillcolor="#f1b991"] ;
653 -> 654 ;
655 [label=<Sales &le; 382.248<br/>gini = 0.48<br/>samples = 5<br/>value = [6, 4]<br/>class = Baixo Lucro>, fillcolor="#f6d5bd"] ;
654 -> 655 ;
656 [label=<gini = 0.0<br/>samples = 2<br/>value = [4, 0]<br/>class = Baixo Lucro>, fillcolor="#e58139"] ;
655 -> 656 ;
657 [label=<Sales &le; 620.328<br/>gini = 0.444<br/>samples = 3<br/>value = [2, 4]<br/>class = Alto Lucro>, fillcolor="#9ccef2"] ;
655 -> 657 ;
658 [label=<gini = 0.0<br/>samples = 1<br/>value = [0, 4]<br/>class = Alto Lucro>, fillcolor="#399de5"] ;
657 -> 658 ;
659 [label=<gini = 0.0<br/>samples = 2<br/>value = [2, 0]<br/>class = Baixo Lucro>, fillcolor="#e58139"] ;
657 -> 659 ;
660 [label=<gini = 0.0<br/>samples = 2<br/>value = [3, 0]<br/>class = Baixo Lucro>, fillcolor="#e58139"] ;
654 -> 660 ;
661 [label=<Sales &le; 766.112<br/>gini = 0.444<br/>samples = 3<br/>value = [2, 1]<br/>class = Baixo Lucro>, fillcolor="#f2c09c"] ;
653 -> 661 ;
662 [label=<gini = 0.0<br/>samples = 1<br/>value = [1, 0]<br/>class = Baixo Lucro>, fillcolor="#e58139"] ;
661 -> 662 ;
663 [label=<Quantity &le; 7.0<br/>gini = 0.5<br/>samples = 2<br/>value = [1, 1]<br/>class = Baixo Lucro>, fillcolor="#ffffff"] ;
661 -> 663 ;
664 [label=<gini = 0.0<br/>samples = 1<br/>value = [1, 0]<br/>class = Baixo Lucro>, fillcolor="#e58139"] ;
663 -> 664 ;
665 [label=<gini = 0.0<br/>samples = 1<br/>value = [0, 1]<br/>class = Alto Lucro>, fillcolor="#399de5"] ;
663 -> 665 ;
666 [label=<gini = 0.0<br/>samples = 1<br/>value = [1, 0]<br/>class = Baixo Lucro>, fillcolor="#e58139"] ;
652 -> 666 ;
667 [label=<gini = 0.0<br/>samples = 8<br/>value = [13, 0]<br/>class = Baixo Lucro>, fillcolor="#e58139"] ;
647 -> 667 ;
668 [label=<Sales &le; 2445.288<br/>gini = 0.469<br/>samples = 10<br/>value = [10, 6]<br/>class = Baixo Lucro>, fillcolor="#f5cdb0"] ;
646 -> 668 ;
669 [label=<Quantity &le; 6.5<br/>gini = 0.278<br/>samples = 8<br/>value = [10, 2]<br/>class = Baixo Lucro>, fillcolor="#ea9a61"] ;
668 -> 669 ;
670 [label=<gini = 0.0<br/>samples = 3<br/>value = [4, 0]<br/>class = Baixo Lucro>, fillcolor="#e58139"] ;
669 -> 670 ;
671 [label=<Sales &le; 1094.908<br/>gini = 0.375<br/>samples = 5<br/>value = [6, 2]<br/>class = Baixo Lucro>, fillcolor="#eeab7b"] ;
669 -> 671 ;
672 [label=<Sales &le; 877.632<br/>gini = 0.245<br/>samples = 4<br/>value = [6, 1]<br/>class = Baixo Lucro>, fillcolor="#e9965a"] ;
671 -> 672 ;
673 [label=<gini = 0.0<br/>samples = 2<br/>value = [4, 0]<br/>class = Baixo Lucro>, fillcolor="#e58139"] ;
672 -> 673 ;
674 [label=<Quantity &le; 8.0<br/>gini = 0.444<br/>samples = 2<br/>value = [2, 1]<br/>class = Baixo Lucro>, fillcolor="#f2c09c"] ;
672 -> 674 ;
675 [label=<gini = 0.0<br/>samples = 1<br/>value = [0, 1]<br/>class = Alto Lucro>, fillcolor="#399de5"] ;
674 -> 675 ;
676 [label=<gini = 0.0<br/>samples = 1<br/>value = [2, 0]<br/>class = Baixo Lucro>, fillcolor="#e58139"] ;
674 -> 676 ;
677 [label=<gini = 0.0<br/>samples = 1<br/>value = [0, 1]<br/>class = Alto Lucro>, fillcolor="#399de5"] ;
671 -> 677 ;
678 [label=<gini = 0.0<br/>samples = 2<br/>value = [0, 4]<br/>class = Alto Lucro>, fillcolor="#399de5"] ;
668 -> 678 ;
679 [label=<gini = 0.0<br/>samples = 16<br/>value = [26, 0]<br/>class = Baixo Lucro>, fillcolor="#e58139"] ;
645 -> 679 ;
680 [label=<Quantity &le; 3.5<br/>gini = 0.499<br/>samples = 945<br/>value = [782.0, 704.0]<br/>class = Baixo Lucro>, fillcolor="#fcf2eb"] ;
0 -> 680 [labeldistance=2.5, labelangle=-45, headlabel="False"] ;
681 [label=<State_Encoded &le; 30.5<br/>gini = 0.467<br/>samples = 547<br/>value = [531, 315]<br/>class = Baixo Lucro>, fillcolor="#f4ccae"] ;
680 -> 681 ;
682 [label=<State_Encoded &le; 12.5<br/>gini = 0.497<br/>samples = 346<br/>value = [287, 248]<br/>class = Baixo Lucro>, fillcolor="#fbeee4"] ;
681 -> 682 ;
683 [label=<Sub-Category_Encoded &le; 3.0<br/>gini = 0.468<br/>samples = 208<br/>value = [210.0, 125.0]<br/>class = Baixo Lucro>, fillcolor="#f4ccaf"] ;
682 -> 683 ;
684 [label=<Discount &le; 0.1<br/>gini = 0.405<br/>samples = 80<br/>value = [89, 35]<br/>class = Baixo Lucro>, fillcolor="#efb387"] ;
683 -> 684 ;
685 [label=<Quantity &le; 2.5<br/>gini = 0.456<br/>samples = 58<br/>value = [59, 32]<br/>class = Baixo Lucro>, fillcolor="#f3c5a4"] ;
684 -> 685 ;
686 [label=<Sales &le; 76.21<br/>gini = 0.338<br/>samples = 35<br/>value = [40, 11]<br/>class = Baixo Lucro>, fillcolor="#eca46f"] ;
685 -> 686 ;
687 [label=<gini = 0.0<br/>samples = 23<br/>value = [35, 0]<br/>class = Baixo Lucro>, fillcolor="#e58139"] ;
686 -> 687 ;
688 [label=<State_Encoded &le; 4.0<br/>gini = 0.43<br/>samples = 12<br/>value = [5, 11]<br/>class = Alto Lucro>, fillcolor="#93caf1"] ;
686 -> 688 ;
689 [label=<Quantity &le; 1.5<br/>gini = 0.5<br/>samples = 8<br/>value = [5, 5]<br/>class = Baixo Lucro>, fillcolor="#ffffff"] ;
688 -> 689 ;
690 [label=<Sales &le; 133.115<br/>gini = 0.375<br/>samples = 4<br/>value = [1, 3]<br/>class = Alto Lucro>, fillcolor="#7bbeee"] ;
689 -> 690 ;
691 [label=<gini = 0.0<br/>samples = 3<br/>value = [0, 3]<br/>class = Alto Lucro>, fillcolor="#399de5"] ;
690 -> 691 ;
692 [label=<gini = 0.0<br/>samples = 1<br/>value = [1, 0]<br/>class = Baixo Lucro>, fillcolor="#e58139"] ;
690 -> 692 ;
693 [label=<Sales &le; 239.98<br/>gini = 0.444<br/>samples = 4<br/>value = [4, 2]<br/>class = Baixo Lucro>, fillcolor="#f2c09c"] ;
689 -> 693 ;
694 [label=<Sales &le; 109.94<br/>gini = 0.444<br/>samples = 3<br/>value = [1, 2]<br/>class = Alto Lucro>, fillcolor="#9ccef2"] ;
693 -> 694 ;
695 [label=<gini = 0.0<br/>samples = 1<br/>value = [1, 0]<br/>class = Baixo Lucro>, fillcolor="#e58139"] ;
694 -> 695 ;
696 [label=<gini = 0.0<br/>samples = 2<br/>value = [0, 2]<br/>class = Alto Lucro>, fillcolor="#399de5"] ;
694 -> 696 ;
697 [label=<gini = 0.0<br/>samples = 1<br/>value = [3, 0]<br/>class = Baixo Lucro>, fillcolor="#e58139"] ;
693 -> 697 ;
698 [label=<gini = 0.0<br/>samples = 4<br/>value = [0, 6]<br/>class = Alto Lucro>, fillcolor="#399de5"] ;
688 -> 698 ;
699 [label=<Sales &le; 128.97<br/>gini = 0.499<br/>samples = 23<br/>value = [19, 21]<br/>class = Alto Lucro>, fillcolor="#ecf6fd"] ;
685 -> 699 ;
700 [label=<Sales &le; 76.14<br/>gini = 0.236<br/>samples = 13<br/>value = [19, 3]<br/>class = Baixo Lucro>, fillcolor="#e99558"] ;
699 -> 700 ;
701 [label=<gini = 0.0<br/>samples = 10<br/>value = [16, 0]<br/>class = Baixo Lucro>, fillcolor="#e58139"] ;
700 -> 701 ;
702 [label=<Sales &le; 103.68<br/>gini = 0.5<br/>samples = 3<br/>value = [3, 3]<br/>class = Baixo Lucro>, fillcolor="#ffffff"] ;
700 -> 702 ;
703 [label=<gini = 0.0<br/>samples = 2<br/>value = [0, 3]<br/>class = Alto Lucro>, fillcolor="#399de5"] ;
702 -> 703 ;
704 [label=<gini = 0.0<br/>samples = 1<br/>value = [3, 0]<br/>class = Baixo Lucro>, fillcolor="#e58139"] ;
702 -> 704 ;
705 [label=<gini = 0.0<br/>samples = 10<br/>value = [0, 18]<br/>class = Alto Lucro>, fillcolor="#399de5"] ;
699 -> 705 ;
706 [label=<Sales &le; 135.52<br/>gini = 0.165<br/>samples = 22<br/>value = [30, 3]<br/>class = Baixo Lucro>, fillcolor="#e88e4d"] ;
684 -> 706 ;
707 [label=<gini = 0.0<br/>samples = 17<br/>value = [26, 0]<br/>class = Baixo Lucro>, fillcolor="#e58139"] ;
706 -> 707 ;
708 [label=<Sales &le; 198.984<br/>gini = 0.49<br/>samples = 5<br/>value = [4, 3]<br/>class = Baixo Lucro>, fillcolor="#f8e0ce"] ;
706 -> 708 ;
709 [label=<gini = 0.0<br/>samples = 2<br/>value = [0, 3]<br/>class = Alto Lucro>, fillcolor="#399de5"] ;
708 -> 709 ;
710 [label=<gini = 0.0<br/>samples = 3<br/>value = [4, 0]<br/>class = Baixo Lucro>, fillcolor="#e58139"] ;
708 -> 710 ;
711 [label=<Sales &le; 279.981<br/>gini = 0.489<br/>samples = 128<br/>value = [121.0, 90.0]<br/>class = Baixo Lucro>, fillcolor="#f8dfcc"] ;
683 -> 711 ;
712 [label=<Quantity &le; 2.5<br/>gini = 0.165<br/>samples = 78<br/>value = [110, 11]<br/>class = Baixo Lucro>, fillcolor="#e88e4d"] ;
711 -> 712 ;
713 [label=<State_Encoded &le; 8.5<br/>gini = 0.113<br/>samples = 55<br/>value = [78, 5]<br/>class = Baixo Lucro>, fillcolor="#e78946"] ;
712 -> 713 ;
714 [label=<Sales &le; 229.584<br/>gini = 0.144<br/>samples = 42<br/>value = [59, 5]<br/>class = Baixo Lucro>, fillcolor="#e78c4a"] ;
713 -> 714 ;
715 [label=<Region_Encoded &le; 1.5<br/>gini = 0.07<br/>samples = 36<br/>value = [53, 2]<br/>class = Baixo Lucro>, fillcolor="#e68640"] ;
714 -> 715 ;
716 [label=<Sales &le; 89.485<br/>gini = 0.444<br/>samples = 2<br/>value = [2, 1]<br/>class = Baixo Lucro>, fillcolor="#f2c09c"] ;
715 -> 716 ;
717 [label=<gini = 0.0<br/>samples = 1<br/>value = [2, 0]<br/>class = Baixo Lucro>, fillcolor="#e58139"] ;
716 -> 717 ;
718 [label=<gini = 0.0<br/>samples = 1<br/>value = [0, 1]<br/>class = Alto Lucro>, fillcolor="#399de5"] ;
716 -> 718 ;
719 [label=<Quantity &le; 1.5<br/>gini = 0.038<br/>samples = 34<br/>value = [51, 1]<br/>class = Baixo Lucro>, fillcolor="#e6833d"] ;
715 -> 719 ;
720 [label=<gini = 0.0<br/>samples = 10<br/>value = [16, 0]<br/>class = Baixo Lucro>, fillcolor="#e58139"] ;
719 -> 720 ;
721 [label=<Discount &le; 0.35<br/>gini = 0.054<br/>samples = 24<br/>value = [35, 1]<br/>class = Baixo Lucro>, fillcolor="#e6853f"] ;
719 -> 721 ;
722 [label=<Region_Encoded &le; 2.5<br/>gini = 0.061<br/>samples = 21<br/>value = [31, 1]<br/>class = Baixo Lucro>, fillcolor="#e6853f"] ;
721 -> 722 ;
723 [label=<gini = 0.0<br/>samples = 5<br/>value = [9, 0]<br/>class = Baixo Lucro>, fillcolor="#e58139"] ;
722 -> 723 ;
724 [label=<Sales &le; 78.784<br/>gini = 0.083<br/>samples = 16<br/>value = [22, 1]<br/>class = Baixo Lucro>, fillcolor="#e68742"] ;
722 -> 724 ;
725 [label=<gini = 0.0<br/>samples = 9<br/>value = [14, 0]<br/>class = Baixo Lucro>, fillcolor="#e58139"] ;
724 -> 725 ;
726 [label=<Sales &le; 97.984<br/>gini = 0.198<br/>samples = 7<br/>value = [8, 1]<br/>class = Baixo Lucro>, fillcolor="#e89152"] ;
724 -> 726 ;
727 [label=<gini = 0.0<br/>samples = 1<br/>value = [0, 1]<br/>class = Alto Lucro>, fillcolor="#399de5"] ;
726 -> 727 ;
728 [label=<gini = 0.0<br/>samples = 6<br/>value = [8, 0]<br/>class = Baixo Lucro>, fillcolor="#e58139"] ;
726 -> 728 ;
729 [label=<gini = 0.0<br/>samples = 3<br/>value = [4, 0]<br/>class = Baixo Lucro>, fillcolor="#e58139"] ;
721 -> 729 ;
730 [label=<Sub-Category_Encoded &le; 12.0<br/>gini = 0.444<br/>samples = 6<br/>value = [6, 3]<br/>class = Baixo Lucro>, fillcolor="#f2c09c"] ;
714 -> 730 ;
731 [label=<gini = 0.0<br/>samples = 1<br/>value = [0, 2]<br/>class = Alto Lucro>, fillcolor="#399de5"] ;
730 -> 731 ;
732 [label=<State_Encoded &le; 5.5<br/>gini = 0.245<br/>samples = 5<br/>value = [6, 1]<br/>class = Baixo Lucro>, fillcolor="#e9965a"] ;
730 -> 732 ;
733 [label=<gini = 0.0<br/>samples = 4<br/>value = [6, 0]<br/>class = Baixo Lucro>, fillcolor="#e58139"] ;
732 -> 733 ;
734 [label=<gini = 0.0<br/>samples = 1<br/>value = [0, 1]<br/>class = Alto Lucro>, fillcolor="#399de5"] ;
732 -> 734 ;
735 [label=<gini = 0.0<br/>samples = 13<br/>value = [19, 0]<br/>class = Baixo Lucro>, fillcolor="#e58139"] ;
713 -> 735 ;
736 [label=<Sales &le; 60.573<br/>gini = 0.266<br/>samples = 23<br/>value = [32, 6]<br/>class = Baixo Lucro>, fillcolor="#ea995e"] ;
712 -> 736 ;
737 [label=<gini = 0.0<br/>samples = 8<br/>value = [13, 0]<br/>class = Baixo Lucro>, fillcolor="#e58139"] ;
736 -> 737 ;
738 [label=<Sub-Category_Encoded &le; 12.0<br/>gini = 0.365<br/>samples = 15<br/>value = [19, 6]<br/>class = Baixo Lucro>, fillcolor="#eda978"] ;
736 -> 738 ;
739 [label=<gini = 0.0<br/>samples = 1<br/>value = [0, 2]<br/>class = Alto Lucro>, fillcolor="#399de5"] ;
738 -> 739 ;
740 [label=<Region_Encoded &le; 2.5<br/>gini = 0.287<br/>samples = 14<br/>value = [19, 4]<br/>class = Baixo Lucro>, fillcolor="#ea9c63"] ;
738 -> 740 ;
741 [label=<Sales &le; 239.973<br/>gini = 0.5<br/>samples = 6<br/>value = [4, 4]<br/>class = Baixo Lucro>, fillcolor="#ffffff"] ;
740 -> 741 ;
742 [label=<Sales &le; 120.285<br/>gini = 0.444<br/>samples = 5<br/>value = [2, 4]<br/>class = Alto Lucro>, fillcolor="#9ccef2"] ;
741 -> 742 ;
743 [label=<gini = 0.0<br/>samples = 1<br/>value = [1, 0]<br/>class = Baixo Lucro>, fillcolor="#e58139"] ;
742 -> 743 ;
744 [label=<Discount &le; 0.1<br/>gini = 0.32<br/>samples = 4<br/>value = [1, 4]<br/>class = Alto Lucro>, fillcolor="#6ab6ec"] ;
742 -> 744 ;
